digraph Tree {
node [shape=box] ;
0 [label="X[7] <= 0.5\ngini = 0.3656\nsamples = 32561\nvalue = [24720, 7841]"] ;
1 [label="X[4] <= 12.5\ngini = 0.4947\nsamples = 13193\nvalue = [7275, 5918]"] ;
0 -> 1 [labeldistance=2.5, labelangle=45, headlabel="True"] ;
2 [label="X[10] <= 5095.5\ngini = 0.4424\nsamples = 9224\nvalue = [6178, 3046]"] ;
1 -> 2 ;
3 [label="X[4] <= 8.5\ngini = 0.4169\nsamples = 8766\nvalue = [6170, 2596]"] ;
2 -> 3 ;
4 [label="X[11] <= 1791.5\ngini = 0.1856\nsamples = 1459\nvalue = [1308, 151]"] ;
3 -> 4 ;
5 [label="X[0] <= 36.5\ngini = 0.1735\nsamples = 1428\nvalue = [1291, 137]"] ;
4 -> 5 ;
6 [label="X[12] <= 49.0\ngini = 0.0818\nsamples = 398\nvalue = [381, 17]"] ;
5 -> 6 ;
7 [label="X[4] <= 7.5\ngini = 0.0589\nsamples = 329\nvalue = [319, 10]"] ;
6 -> 7 ;
8 [label="X[3] <= 0.5\ngini = 0.0454\nsamples = 301\nvalue = [294, 7]"] ;
7 -> 8 ;
9 [label="X[0] <= 28.5\ngini = 0.1078\nsamples = 70\nvalue = [66, 4]"] ;
8 -> 9 ;
10 [label="gini = 0.0\nsamples = 29\nvalue = [29, 0]"] ;
9 -> 10 ;
11 [label="X[12] <= 37.5\ngini = 0.1761\nsamples = 41\nvalue = [37, 4]"] ;
9 -> 11 ;
12 [label="gini = 0.0\nsamples = 1\nvalue = [0, 1]"] ;
11 -> 12 ;
13 [label="X[12] <= 42.5\ngini = 0.1388\nsamples = 40\nvalue = [37, 3]"] ;
11 -> 13 ;
14 [label="X[2] <= 378029.0\ngini = 0.0997\nsamples = 38\nvalue = [36, 2]"] ;
13 -> 14 ;
15 [label="X[2] <= 182088.0\ngini = 0.054\nsamples = 36\nvalue = [35, 1]"] ;
14 -> 15 ;
16 [label="X[2] <= 176294.0\ngini = 0.1107\nsamples = 17\nvalue = [16, 1]"] ;
15 -> 16 ;
17 [label="gini = 0.0\nsamples = 16\nvalue = [16, 0]"] ;
16 -> 17 ;
18 [label="gini = 0.0\nsamples = 1\nvalue = [0, 1]"] ;
16 -> 18 ;
19 [label="gini = 0.0\nsamples = 19\nvalue = [19, 0]"] ;
15 -> 19 ;
20 [label="X[2] <= 461248.0\ngini = 0.5\nsamples = 2\nvalue = [1, 1]"] ;
14 -> 20 ;
21 [label="gini = 0.0\nsamples = 1\nvalue = [0, 1]"] ;
20 -> 21 ;
22 [label="gini = 0.0\nsamples = 1\nvalue = [1, 0]"] ;
20 -> 22 ;
23 [label="X[6] <= 3.5\ngini = 0.5\nsamples = 2\nvalue = [1, 1]"] ;
13 -> 23 ;
24 [label="gini = 0.0\nsamples = 1\nvalue = [0, 1]"] ;
23 -> 24 ;
25 [label="gini = 0.0\nsamples = 1\nvalue = [1, 0]"] ;
23 -> 25 ;
26 [label="X[6] <= 2.0\ngini = 0.0256\nsamples = 231\nvalue = [228, 3]"] ;
8 -> 26 ;
27 [label="X[0] <= 28.0\ngini = 0.32\nsamples = 5\nvalue = [4, 1]"] ;
26 -> 27 ;
28 [label="gini = 0.0\nsamples = 1\nvalue = [0, 1]"] ;
27 -> 28 ;
29 [label="gini = 0.0\nsamples = 4\nvalue = [4, 0]"] ;
27 -> 29 ;
30 [label="X[1] <= 3.0\ngini = 0.0175\nsamples = 226\nvalue = [224, 2]"] ;
26 -> 30 ;
31 [label="X[8] <= 3.0\ngini = 0.1975\nsamples = 9\nvalue = [8, 1]"] ;
30 -> 31 ;
32 [label="X[0] <= 31.5\ngini = 0.5\nsamples = 2\nvalue = [1, 1]"] ;
31 -> 32 ;
33 [label="gini = 0.0\nsamples = 1\nvalue = [0, 1]"] ;
32 -> 33 ;
34 [label="gini = 0.0\nsamples = 1\nvalue = [1, 0]"] ;
32 -> 34 ;
35 [label="gini = 0.0\nsamples = 7\nvalue = [7, 0]"] ;
31 -> 35 ;
36 [label="X[2] <= 91739.5\ngini = 0.0092\nsamples = 217\nvalue = [216, 1]"] ;
30 -> 36 ;
37 [label="X[2] <= 89656.5\ngini = 0.1244\nsamples = 15\nvalue = [14, 1]"] ;
36 -> 37 ;
38 [label="gini = 0.0\nsamples = 14\nvalue = [14, 0]"] ;
37 -> 38 ;
39 [label="gini = 0.0\nsamples = 1\nvalue = [0, 1]"] ;
37 -> 39 ;
40 [label="gini = 0.0\nsamples = 202\nvalue = [202, 0]"] ;
36 -> 40 ;
41 [label="X[6] <= 11.5\ngini = 0.1913\nsamples = 28\nvalue = [25, 3]"] ;
7 -> 41 ;
42 [label="X[0] <= 25.5\ngini = 0.0868\nsamples = 22\nvalue = [21, 1]"] ;
41 -> 42 ;
43 [label="X[0] <= 24.5\ngini = 0.2778\nsamples = 6\nvalue = [5, 1]"] ;
42 -> 43 ;
44 [label="gini = 0.0\nsamples = 4\nvalue = [4, 0]"] ;
43 -> 44 ;
45 [label="X[6] <= 5.0\ngini = 0.5\nsamples = 2\nvalue = [1, 1]"] ;
43 -> 45 ;
46 [label="gini = 0.0\nsamples = 1\nvalue = [0, 1]"] ;
45 -> 46 ;
47 [label="gini = 0.0\nsamples = 1\nvalue = [1, 0]"] ;
45 -> 47 ;
48 [label="gini = 0.0\nsamples = 16\nvalue = [16, 0]"] ;
42 -> 48 ;
49 [label="X[2] <= 369420.0\ngini = 0.4444\nsamples = 6\nvalue = [4, 2]"] ;
41 -> 49 ;
50 [label="X[0] <= 32.0\ngini = 0.32\nsamples = 5\nvalue = [4, 1]"] ;
49 -> 50 ;
51 [label="X[0] <= 25.5\ngini = 0.4444\nsamples = 3\nvalue = [2, 1]"] ;
50 -> 51 ;
52 [label="gini = 0.0\nsamples = 1\nvalue = [1, 0]"] ;
51 -> 52 ;
53 [label="X[2] <= 226142.5\ngini = 0.5\nsamples = 2\nvalue = [1, 1]"] ;
51 -> 53 ;
54 [label="gini = 0.0\nsamples = 1\nvalue = [0, 1]"] ;
53 -> 54 ;
55 [label="gini = 0.0\nsamples = 1\nvalue = [1, 0]"] ;
53 -> 55 ;
56 [label="gini = 0.0\nsamples = 2\nvalue = [2, 0]"] ;
50 -> 56 ;
57 [label="gini = 0.0\nsamples = 1\nvalue = [0, 1]"] ;
49 -> 57 ;
58 [label="X[2] <= 29992.5\ngini = 0.1823\nsamples = 69\nvalue = [62, 7]"] ;
6 -> 58 ;
59 [label="X[3] <= 3.0\ngini = 0.5\nsamples = 2\nvalue = [1, 1]"] ;
58 -> 59 ;
60 [label="gini = 0.0\nsamples = 1\nvalue = [0, 1]"] ;
59 -> 60 ;
61 [label="gini = 0.0\nsamples = 1\nvalue = [1, 0]"] ;
59 -> 61 ;
62 [label="X[2] <= 208931.5\ngini = 0.1631\nsamples = 67\nvalue = [61, 6]"] ;
58 -> 62 ;
63 [label="X[2] <= 106279.5\ngini = 0.0512\nsamples = 38\nvalue = [37, 1]"] ;
62 -> 63 ;
64 [label="X[2] <= 89701.0\ngini = 0.2188\nsamples = 8\nvalue = [7, 1]"] ;
63 -> 64 ;
65 [label="gini = 0.0\nsamples = 7\nvalue = [7, 0]"] ;
64 -> 65 ;
66 [label="gini = 0.0\nsamples = 1\nvalue = [0, 1]"] ;
64 -> 66 ;
67 [label="gini = 0.0\nsamples = 30\nvalue = [30, 0]"] ;
63 -> 67 ;
68 [label="X[2] <= 249305.5\ngini = 0.2854\nsamples = 29\nvalue = [24, 5]"] ;
62 -> 68 ;
69 [label="X[3] <= 4.5\ngini = 0.48\nsamples = 10\nvalue = [6, 4]"] ;
68 -> 69 ;
70 [label="X[6] <= 3.5\ngini = 0.4444\nsamples = 6\nvalue = [2, 4]"] ;
69 -> 70 ;
71 [label="gini = 0.0\nsamples = 3\nvalue = [0, 3]"] ;
70 -> 71 ;
72 [label="X[2] <= 233473.5\ngini = 0.4444\nsamples = 3\nvalue = [2, 1]"] ;
70 -> 72 ;
73 [label="gini = 0.0\nsamples = 1\nvalue = [0, 1]"] ;
72 -> 73 ;
74 [label="gini = 0.0\nsamples = 2\nvalue = [2, 0]"] ;
72 -> 74 ;
75 [label="gini = 0.0\nsamples = 4\nvalue = [4, 0]"] ;
69 -> 75 ;
76 [label="X[0] <= 35.5\ngini = 0.0997\nsamples = 19\nvalue = [18, 1]"] ;
68 -> 76 ;
77 [label="gini = 0.0\nsamples = 18\nvalue = [18, 0]"] ;
76 -> 77 ;
78 [label="gini = 0.0\nsamples = 1\nvalue = [0, 1]"] ;
76 -> 78 ;
79 [label="X[0] <= 66.5\ngini = 0.2059\nsamples = 1030\nvalue = [910, 120]"] ;
5 -> 79 ;
80 [label="X[3] <= 2.5\ngini = 0.2265\nsamples = 914\nvalue = [795, 119]"] ;
79 -> 80 ;
81 [label="X[2] <= 368771.5\ngini = 0.2852\nsamples = 418\nvalue = [346, 72]"] ;
80 -> 81 ;
82 [label="X[1] <= 3.0\ngini = 0.271\nsamples = 396\nvalue = [332, 64]"] ;
81 -> 82 ;
83 [label="X[0] <= 63.5\ngini = 0.0868\nsamples = 44\nvalue = [42, 2]"] ;
82 -> 83 ;
84 [label="gini = 0.0\nsamples = 34\nvalue = [34, 0]"] ;
83 -> 84 ;
85 [label="X[8] <= 3.0\ngini = 0.32\nsamples = 10\nvalue = [8, 2]"] ;
83 -> 85 ;
86 [label="gini = 0.0\nsamples = 1\nvalue = [0, 1]"] ;
85 -> 86 ;
87 [label="X[12] <= 48.0\ngini = 0.1975\nsamples = 9\nvalue = [8, 1]"] ;
85 -> 87 ;
88 [label="gini = 0.0\nsamples = 7\nvalue = [7, 0]"] ;
87 -> 88 ;
89 [label="X[12] <= 63.0\ngini = 0.5\nsamples = 2\nvalue = [1, 1]"] ;
87 -> 89 ;
90 [label="gini = 0.0\nsamples = 1\nvalue = [0, 1]"] ;
89 -> 90 ;
91 [label="gini = 0.0\nsamples = 1\nvalue = [1, 0]"] ;
89 -> 91 ;
92 [label="X[3] <= 1.5\ngini = 0.2902\nsamples = 352\nvalue = [290, 62]"] ;
82 -> 92 ;
93 [label="X[2] <= 198384.0\ngini = 0.2638\nsamples = 307\nvalue = [259, 48]"] ;
92 -> 93 ;
94 [label="X[2] <= 197218.0\ngini = 0.3109\nsamples = 213\nvalue = [172, 41]"] ;
93 -> 94 ;
95 [label="X[10] <= 2869.0\ngini = 0.2964\nsamples = 210\nvalue = [172, 38]"] ;
94 -> 95 ;
96 [label="X[0] <= 43.5\ngini = 0.2832\nsamples = 205\nvalue = [170, 35]"] ;
95 -> 96 ;
97 [label="X[0] <= 40.5\ngini = 0.1128\nsamples = 50\nvalue = [47, 3]"] ;
96 -> 97 ;
98 [label="X[6] <= 7.5\ngini = 0.1855\nsamples = 29\nvalue = [26, 3]"] ;
97 -> 98 ;
99 [label="X[2] <= 114718.5\ngini = 0.2659\nsamples = 19\nvalue = [16, 3]"] ;
98 -> 99 ;
100 [label="X[2] <= 73669.0\ngini = 0.5\nsamples = 4\nvalue = [2, 2]"] ;
99 -> 100 ;
101 [label="gini = 0.0\nsamples = 2\nvalue = [2, 0]"] ;
100 -> 101 ;
102 [label="gini = 0.0\nsamples = 2\nvalue = [0, 2]"] ;
100 -> 102 ;
103 [label="X[6] <= 6.5\ngini = 0.1244\nsamples = 15\nvalue = [14, 1]"] ;
99 -> 103 ;
104 [label="gini = 0.0\nsamples = 12\nvalue = [12, 0]"] ;
103 -> 104 ;
105 [label="X[0] <= 38.5\ngini = 0.4444\nsamples = 3\nvalue = [2, 1]"] ;
103 -> 105 ;
106 [label="gini = 0.0\nsamples = 1\nvalue = [0, 1]"] ;
105 -> 106 ;
107 [label="gini = 0.0\nsamples = 2\nvalue = [2, 0]"] ;
105 -> 107 ;
108 [label="gini = 0.0\nsamples = 10\nvalue = [10, 0]"] ;
98 -> 108 ;
109 [label="gini = 0.0\nsamples = 21\nvalue = [21, 0]"] ;
97 -> 109 ;
110 [label="X[6] <= 13.0\ngini = 0.3277\nsamples = 155\nvalue = [123, 32]"] ;
96 -> 110 ;
111 [label="X[0] <= 44.5\ngini = 0.2829\nsamples = 129\nvalue = [107, 22]"] ;
110 -> 111 ;
112 [label="X[8] <= 3.0\ngini = 0.4444\nsamples = 3\nvalue = [1, 2]"] ;
111 -> 112 ;
113 [label="gini = 0.0\nsamples = 1\nvalue = [1, 0]"] ;
112 -> 113 ;
114 [label="gini = 0.0\nsamples = 2\nvalue = [0, 2]"] ;
112 -> 114 ;
115 [label="X[0] <= 53.5\ngini = 0.2671\nsamples = 126\nvalue = [106, 20]"] ;
111 -> 115 ;
116 [label="X[12] <= 43.0\ngini = 0.3457\nsamples = 54\nvalue = [42, 12]"] ;
115 -> 116 ;
117 [label="X[6] <= 4.0\ngini = 0.2337\nsamples = 37\nvalue = [32, 5]"] ;
116 -> 117 ;
118 [label="X[2] <= 82642.0\ngini = 0.3599\nsamples = 17\nvalue = [13, 4]"] ;
117 -> 118 ;
119 [label="X[0] <= 50.0\ngini = 0.5\nsamples = 4\nvalue = [2, 2]"] ;
118 -> 119 ;
120 [label="gini = 0.0\nsamples = 2\nvalue = [2, 0]"] ;
119 -> 120 ;
121 [label="gini = 0.0\nsamples = 2\nvalue = [0, 2]"] ;
119 -> 121 ;
122 [label="X[2] <= 165989.5\ngini = 0.2604\nsamples = 13\nvalue = [11, 2]"] ;
118 -> 122 ;
123 [label="X[2] <= 164432.0\ngini = 0.3457\nsamples = 9\nvalue = [7, 2]"] ;
122 -> 123 ;
124 [label="X[3] <= 0.5\ngini = 0.2188\nsamples = 8\nvalue = [7, 1]"] ;
123 -> 124 ;
125 [label="gini = 0.0\nsamples = 4\nvalue = [4, 0]"] ;
124 -> 125 ;
126 [label="X[0] <= 52.5\ngini = 0.375\nsamples = 4\nvalue = [3, 1]"] ;
124 -> 126 ;
127 [label="X[0] <= 51.0\ngini = 0.5\nsamples = 2\nvalue = [1, 1]"] ;
126 -> 127 ;
128 [label="gini = 0.0\nsamples = 1\nvalue = [1, 0]"] ;
127 -> 128 ;
129 [label="gini = 0.0\nsamples = 1\nvalue = [0, 1]"] ;
127 -> 129 ;
130 [label="gini = 0.0\nsamples = 2\nvalue = [2, 0]"] ;
126 -> 130 ;
131 [label="gini = 0.0\nsamples = 1\nvalue = [0, 1]"] ;
123 -> 131 ;
132 [label="gini = 0.0\nsamples = 4\nvalue = [4, 0]"] ;
122 -> 132 ;
133 [label="X[2] <= 182915.5\ngini = 0.095\nsamples = 20\nvalue = [19, 1]"] ;
117 -> 133 ;
134 [label="gini = 0.0\nsamples = 18\nvalue = [18, 0]"] ;
133 -> 134 ;
135 [label="X[12] <= 40.5\ngini = 0.5\nsamples = 2\nvalue = [1, 1]"] ;
133 -> 135 ;
136 [label="gini = 0.0\nsamples = 1\nvalue = [0, 1]"] ;
135 -> 136 ;
137 [label="gini = 0.0\nsamples = 1\nvalue = [1, 0]"] ;
135 -> 137 ;
138 [label="X[12] <= 54.0\ngini = 0.4844\nsamples = 17\nvalue = [10, 7]"] ;
116 -> 138 ;
139 [label="X[1] <= 5.0\ngini = 0.4628\nsamples = 11\nvalue = [4, 7]"] ;
138 -> 139 ;
140 [label="X[12] <= 49.0\ngini = 0.5\nsamples = 8\nvalue = [4, 4]"] ;
139 -> 140 ;
141 [label="X[0] <= 46.5\ngini = 0.4444\nsamples = 6\nvalue = [2, 4]"] ;
140 -> 141 ;
142 [label="X[3] <= 0.5\ngini = 0.4444\nsamples = 3\nvalue = [2, 1]"] ;
141 -> 142 ;
143 [label="gini = 0.0\nsamples = 2\nvalue = [2, 0]"] ;
142 -> 143 ;
144 [label="gini = 0.0\nsamples = 1\nvalue = [0, 1]"] ;
142 -> 144 ;
145 [label="gini = 0.0\nsamples = 3\nvalue = [0, 3]"] ;
141 -> 145 ;
146 [label="gini = 0.0\nsamples = 2\nvalue = [2, 0]"] ;
140 -> 146 ;
147 [label="gini = 0.0\nsamples = 3\nvalue = [0, 3]"] ;
139 -> 147 ;
148 [label="gini = 0.0\nsamples = 6\nvalue = [6, 0]"] ;
138 -> 148 ;
149 [label="X[2] <= 193091.0\ngini = 0.1975\nsamples = 72\nvalue = [64, 8]"] ;
115 -> 149 ;
150 [label="X[2] <= 124548.0\ngini = 0.18\nsamples = 70\nvalue = [63, 7]"] ;
149 -> 150 ;
151 [label="X[2] <= 119178.5\ngini = 0.2934\nsamples = 28\nvalue = [23, 5]"] ;
150 -> 151 ;
152 [label="X[0] <= 64.5\ngini = 0.2041\nsamples = 26\nvalue = [23, 3]"] ;
151 -> 152 ;
153 [label="X[0] <= 58.5\ngini = 0.1528\nsamples = 24\nvalue = [22, 2]"] ;
152 -> 153 ;
154 [label="gini = 0.0\nsamples = 10\nvalue = [10, 0]"] ;
153 -> 154 ;
155 [label="X[6] <= 3.5\ngini = 0.2449\nsamples = 14\nvalue = [12, 2]"] ;
153 -> 155 ;
156 [label="X[0] <= 61.0\ngini = 0.5\nsamples = 2\nvalue = [1, 1]"] ;
155 -> 156 ;
157 [label="gini = 0.0\nsamples = 1\nvalue = [0, 1]"] ;
156 -> 157 ;
158 [label="gini = 0.0\nsamples = 1\nvalue = [1, 0]"] ;
156 -> 158 ;
159 [label="X[2] <= 82310.0\ngini = 0.1528\nsamples = 12\nvalue = [11, 1]"] ;
155 -> 159 ;
160 [label="X[2] <= 70355.0\ngini = 0.32\nsamples = 5\nvalue = [4, 1]"] ;
159 -> 160 ;
161 [label="gini = 0.0\nsamples = 4\nvalue = [4, 0]"] ;
160 -> 161 ;
162 [label="gini = 0.0\nsamples = 1\nvalue = [0, 1]"] ;
160 -> 162 ;
163 [label="gini = 0.0\nsamples = 7\nvalue = [7, 0]"] ;
159 -> 163 ;
164 [label="X[3] <= 0.5\ngini = 0.5\nsamples = 2\nvalue = [1, 1]"] ;
152 -> 164 ;
165 [label="gini = 0.0\nsamples = 1\nvalue = [0, 1]"] ;
164 -> 165 ;
166 [label="gini = 0.0\nsamples = 1\nvalue = [1, 0]"] ;
164 -> 166 ;
167 [label="gini = 0.0\nsamples = 2\nvalue = [0, 2]"] ;
151 -> 167 ;
168 [label="X[6] <= 3.5\ngini = 0.0907\nsamples = 42\nvalue = [40, 2]"] ;
150 -> 168 ;
169 [label="X[2] <= 153022.5\ngini = 0.1975\nsamples = 18\nvalue = [16, 2]"] ;
168 -> 169 ;
170 [label="gini = 0.0\nsamples = 9\nvalue = [9, 0]"] ;
169 -> 170 ;
171 [label="X[2] <= 162841.0\ngini = 0.3457\nsamples = 9\nvalue = [7, 2]"] ;
169 -> 171 ;
172 [label="gini = 0.0\nsamples = 2\nvalue = [0, 2]"] ;
171 -> 172 ;
173 [label="gini = 0.0\nsamples = 7\nvalue = [7, 0]"] ;
171 -> 173 ;
174 [label="gini = 0.0\nsamples = 24\nvalue = [24, 0]"] ;
168 -> 174 ;
175 [label="X[6] <= 5.5\ngini = 0.5\nsamples = 2\nvalue = [1, 1]"] ;
149 -> 175 ;
176 [label="gini = 0.0\nsamples = 1\nvalue = [1, 0]"] ;
175 -> 176 ;
177 [label="gini = 0.0\nsamples = 1\nvalue = [0, 1]"] ;
175 -> 177 ;
178 [label="X[0] <= 48.5\ngini = 0.4734\nsamples = 26\nvalue = [16, 10]"] ;
110 -> 178 ;
179 [label="gini = 0.0\nsamples = 2\nvalue = [0, 2]"] ;
178 -> 179 ;
180 [label="X[0] <= 58.5\ngini = 0.4444\nsamples = 24\nvalue = [16, 8]"] ;
178 -> 180 ;
181 [label="X[12] <= 35.0\ngini = 0.3367\nsamples = 14\nvalue = [11, 3]"] ;
180 -> 181 ;
182 [label="gini = 0.0\nsamples = 1\nvalue = [0, 1]"] ;
181 -> 182 ;
183 [label="X[2] <= 139316.5\ngini = 0.2604\nsamples = 13\nvalue = [11, 2]"] ;
181 -> 183 ;
184 [label="gini = 0.0\nsamples = 7\nvalue = [7, 0]"] ;
183 -> 184 ;
185 [label="X[2] <= 166394.5\ngini = 0.4444\nsamples = 6\nvalue = [4, 2]"] ;
183 -> 185 ;
186 [label="gini = 0.0\nsamples = 2\nvalue = [0, 2]"] ;
185 -> 186 ;
187 [label="gini = 0.0\nsamples = 4\nvalue = [4, 0]"] ;
185 -> 187 ;
188 [label="X[12] <= 42.5\ngini = 0.5\nsamples = 10\nvalue = [5, 5]"] ;
180 -> 188 ;
189 [label="X[11] <= 742.5\ngini = 0.4688\nsamples = 8\nvalue = [5, 3]"] ;
188 -> 189 ;
190 [label="X[1] <= 4.5\ngini = 0.4082\nsamples = 7\nvalue = [5, 2]"] ;
189 -> 190 ;
191 [label="X[2] <= 177866.0\ngini = 0.2778\nsamples = 6\nvalue = [5, 1]"] ;
190 -> 191 ;
192 [label="gini = 0.0\nsamples = 4\nvalue = [4, 0]"] ;
191 -> 192 ;
193 [label="X[0] <= 62.5\ngini = 0.5\nsamples = 2\nvalue = [1, 1]"] ;
191 -> 193 ;
194 [label="gini = 0.0\nsamples = 1\nvalue = [1, 0]"] ;
193 -> 194 ;
195 [label="gini = 0.0\nsamples = 1\nvalue = [0, 1]"] ;
193 -> 195 ;
196 [label="gini = 0.0\nsamples = 1\nvalue = [0, 1]"] ;
190 -> 196 ;
197 [label="gini = 0.0\nsamples = 1\nvalue = [0, 1]"] ;
189 -> 197 ;
198 [label="gini = 0.0\nsamples = 2\nvalue = [0, 2]"] ;
188 -> 198 ;
199 [label="X[3] <= 0.5\ngini = 0.48\nsamples = 5\nvalue = [2, 3]"] ;
95 -> 199 ;
200 [label="gini = 0.0\nsamples = 2\nvalue = [2, 0]"] ;
199 -> 200 ;
201 [label="gini = 0.0\nsamples = 3\nvalue = [0, 3]"] ;
199 -> 201 ;
202 [label="gini = 0.0\nsamples = 3\nvalue = [0, 3]"] ;
94 -> 202 ;
203 [label="X[0] <= 50.5\ngini = 0.1378\nsamples = 94\nvalue = [87, 7]"] ;
93 -> 203 ;
204 [label="X[6] <= 2.0\ngini = 0.2112\nsamples = 50\nvalue = [44, 6]"] ;
203 -> 204 ;
205 [label="X[2] <= 251783.5\ngini = 0.5\nsamples = 2\nvalue = [1, 1]"] ;
204 -> 205 ;
206 [label="gini = 0.0\nsamples = 1\nvalue = [1, 0]"] ;
205 -> 206 ;
207 [label="gini = 0.0\nsamples = 1\nvalue = [0, 1]"] ;
205 -> 207 ;
208 [label="X[4] <= 6.5\ngini = 0.1866\nsamples = 48\nvalue = [43, 5]"] ;
204 -> 208 ;
209 [label="X[2] <= 201902.0\ngini = 0.2975\nsamples = 22\nvalue = [18, 4]"] ;
208 -> 209 ;
210 [label="gini = 0.0\nsamples = 1\nvalue = [0, 1]"] ;
209 -> 210 ;
211 [label="X[0] <= 47.0\ngini = 0.2449\nsamples = 21\nvalue = [18, 3]"] ;
209 -> 211 ;
212 [label="X[12] <= 55.0\ngini = 0.1172\nsamples = 16\nvalue = [15, 1]"] ;
211 -> 212 ;
213 [label="gini = 0.0\nsamples = 12\nvalue = [12, 0]"] ;
212 -> 213 ;
214 [label="X[2] <= 306504.5\ngini = 0.375\nsamples = 4\nvalue = [3, 1]"] ;
212 -> 214 ;
215 [label="gini = 0.0\nsamples = 3\nvalue = [3, 0]"] ;
214 -> 215 ;
216 [label="gini = 0.0\nsamples = 1\nvalue = [0, 1]"] ;
214 -> 216 ;
217 [label="X[2] <= 256769.5\ngini = 0.48\nsamples = 5\nvalue = [3, 2]"] ;
211 -> 217 ;
218 [label="X[2] <= 211385.0\ngini = 0.4444\nsamples = 3\nvalue = [1, 2]"] ;
217 -> 218 ;
219 [label="gini = 0.0\nsamples = 1\nvalue = [1, 0]"] ;
218 -> 219 ;
220 [label="gini = 0.0\nsamples = 2\nvalue = [0, 2]"] ;
218 -> 220 ;
221 [label="gini = 0.0\nsamples = 2\nvalue = [2, 0]"] ;
217 -> 221 ;
222 [label="X[0] <= 38.5\ngini = 0.074\nsamples = 26\nvalue = [25, 1]"] ;
208 -> 222 ;
223 [label="X[2] <= 268310.0\ngini = 0.32\nsamples = 5\nvalue = [4, 1]"] ;
222 -> 223 ;
224 [label="gini = 0.0\nsamples = 4\nvalue = [4, 0]"] ;
223 -> 224 ;
225 [label="gini = 0.0\nsamples = 1\nvalue = [0, 1]"] ;
223 -> 225 ;
226 [label="gini = 0.0\nsamples = 21\nvalue = [21, 0]"] ;
222 -> 226 ;
227 [label="X[8] <= 3.0\ngini = 0.0444\nsamples = 44\nvalue = [43, 1]"] ;
203 -> 227 ;
228 [label="X[2] <= 244413.5\ngini = 0.2778\nsamples = 6\nvalue = [5, 1]"] ;
227 -> 228 ;
229 [label="gini = 0.0\nsamples = 5\nvalue = [5, 0]"] ;
228 -> 229 ;
230 [label="gini = 0.0\nsamples = 1\nvalue = [0, 1]"] ;
228 -> 230 ;
231 [label="gini = 0.0\nsamples = 38\nvalue = [38, 0]"] ;
227 -> 231 ;
232 [label="X[2] <= 231477.5\ngini = 0.4286\nsamples = 45\nvalue = [31, 14]"] ;
92 -> 232 ;
233 [label="X[2] <= 225039.5\ngini = 0.382\nsamples = 35\nvalue = [26, 9]"] ;
232 -> 233 ;
234 [label="X[2] <= 219441.5\ngini = 0.4121\nsamples = 31\nvalue = [22, 9]"] ;
233 -> 234 ;
235 [label="X[0] <= 42.0\ngini = 0.3911\nsamples = 30\nvalue = [22, 8]"] ;
234 -> 235 ;
236 [label="X[6] <= 6.5\ngini = 0.5\nsamples = 6\nvalue = [3, 3]"] ;
235 -> 236 ;
237 [label="X[2] <= 164461.0\ngini = 0.375\nsamples = 4\nvalue = [1, 3]"] ;
236 -> 237 ;
238 [label="gini = 0.0\nsamples = 2\nvalue = [0, 2]"] ;
237 -> 238 ;
239 [label="X[2] <= 187026.5\ngini = 0.5\nsamples = 2\nvalue = [1, 1]"] ;
237 -> 239 ;
240 [label="gini = 0.0\nsamples = 1\nvalue = [1, 0]"] ;
239 -> 240 ;
241 [label="gini = 0.0\nsamples = 1\nvalue = [0, 1]"] ;
239 -> 241 ;
242 [label="gini = 0.0\nsamples = 2\nvalue = [2, 0]"] ;
236 -> 242 ;
243 [label="X[0] <= 48.5\ngini = 0.3299\nsamples = 24\nvalue = [19, 5]"] ;
235 -> 243 ;
244 [label="gini = 0.0\nsamples = 7\nvalue = [7, 0]"] ;
243 -> 244 ;
245 [label="X[8] <= 2.5\ngini = 0.4152\nsamples = 17\nvalue = [12, 5]"] ;
243 -> 245 ;
246 [label="gini = 0.0\nsamples = 1\nvalue = [0, 1]"] ;
245 -> 246 ;
247 [label="X[1] <= 5.5\ngini = 0.375\nsamples = 16\nvalue = [12, 4]"] ;
245 -> 247 ;
248 [label="X[2] <= 38650.5\ngini = 0.2778\nsamples = 12\nvalue = [10, 2]"] ;
247 -> 248 ;
249 [label="gini = 0.0\nsamples = 1\nvalue = [0, 1]"] ;
248 -> 249 ;
250 [label="X[6] <= 8.5\ngini = 0.1653\nsamples = 11\nvalue = [10, 1]"] ;
248 -> 250 ;
251 [label="gini = 0.0\nsamples = 9\nvalue = [9, 0]"] ;
250 -> 251 ;
252 [label="X[0] <= 53.5\ngini = 0.5\nsamples = 2\nvalue = [1, 1]"] ;
250 -> 252 ;
253 [label="gini = 0.0\nsamples = 1\nvalue = [1, 0]"] ;
252 -> 253 ;
254 [label="gini = 0.0\nsamples = 1\nvalue = [0, 1]"] ;
252 -> 254 ;
255 [label="X[0] <= 51.5\ngini = 0.5\nsamples = 4\nvalue = [2, 2]"] ;
247 -> 255 ;
256 [label="gini = 0.0\nsamples = 1\nvalue = [1, 0]"] ;
255 -> 256 ;
257 [label="X[1] <= 6.5\ngini = 0.4444\nsamples = 3\nvalue = [1, 2]"] ;
255 -> 257 ;
258 [label="gini = 0.0\nsamples = 2\nvalue = [0, 2]"] ;
257 -> 258 ;
259 [label="gini = 0.0\nsamples = 1\nvalue = [1, 0]"] ;
257 -> 259 ;
260 [label="gini = 0.0\nsamples = 1\nvalue = [0, 1]"] ;
234 -> 260 ;
261 [label="gini = 0.0\nsamples = 4\nvalue = [4, 0]"] ;
233 -> 261 ;
262 [label="X[2] <= 253597.0\ngini = 0.5\nsamples = 10\nvalue = [5, 5]"] ;
232 -> 262 ;
263 [label="gini = 0.0\nsamples = 3\nvalue = [0, 3]"] ;
262 -> 263 ;
264 [label="X[0] <= 44.5\ngini = 0.4082\nsamples = 7\nvalue = [5, 2]"] ;
262 -> 264 ;
265 [label="X[2] <= 346018.5\ngini = 0.4444\nsamples = 3\nvalue = [1, 2]"] ;
264 -> 265 ;
266 [label="gini = 0.0\nsamples = 2\nvalue = [0, 2]"] ;
265 -> 266 ;
267 [label="gini = 0.0\nsamples = 1\nvalue = [1, 0]"] ;
265 -> 267 ;
268 [label="gini = 0.0\nsamples = 4\nvalue = [4, 0]"] ;
264 -> 268 ;
269 [label="X[2] <= 439534.0\ngini = 0.4628\nsamples = 22\nvalue = [14, 8]"] ;
81 -> 269 ;
270 [label="X[2] <= 420075.5\ngini = 0.4861\nsamples = 12\nvalue = [5, 7]"] ;
269 -> 270 ;
271 [label="X[12] <= 37.5\ngini = 0.4938\nsamples = 9\nvalue = [5, 4]"] ;
270 -> 271 ;
272 [label="gini = 0.0\nsamples = 2\nvalue = [0, 2]"] ;
271 -> 272 ;
273 [label="X[10] <= 1551.5\ngini = 0.4082\nsamples = 7\nvalue = [5, 2]"] ;
271 -> 273 ;
274 [label="X[2] <= 371294.0\ngini = 0.2778\nsamples = 6\nvalue = [5, 1]"] ;
273 -> 274 ;
275 [label="gini = 0.0\nsamples = 1\nvalue = [0, 1]"] ;
274 -> 275 ;
276 [label="gini = 0.0\nsamples = 5\nvalue = [5, 0]"] ;
274 -> 276 ;
277 [label="gini = 0.0\nsamples = 1\nvalue = [0, 1]"] ;
273 -> 277 ;
278 [label="gini = 0.0\nsamples = 3\nvalue = [0, 3]"] ;
270 -> 278 ;
279 [label="X[1] <= 6.0\ngini = 0.18\nsamples = 10\nvalue = [9, 1]"] ;
269 -> 279 ;
280 [label="gini = 0.0\nsamples = 9\nvalue = [9, 0]"] ;
279 -> 280 ;
281 [label="gini = 0.0\nsamples = 1\nvalue = [0, 1]"] ;
279 -> 281 ;
282 [label="X[12] <= 49.5\ngini = 0.1716\nsamples = 496\nvalue = [449, 47]"] ;
80 -> 282 ;
283 [label="X[1] <= 4.5\ngini = 0.1199\nsamples = 406\nvalue = [380, 26]"] ;
282 -> 283 ;
284 [label="X[2] <= 30970.0\ngini = 0.0848\nsamples = 338\nvalue = [323, 15]"] ;
283 -> 284 ;
285 [label="X[2] <= 30372.5\ngini = 0.48\nsamples = 5\nvalue = [3, 2]"] ;
284 -> 285 ;
286 [label="gini = 0.0\nsamples = 3\nvalue = [3, 0]"] ;
285 -> 286 ;
287 [label="gini = 0.0\nsamples = 2\nvalue = [0, 2]"] ;
285 -> 287 ;
288 [label="X[2] <= 390988.5\ngini = 0.075\nsamples = 333\nvalue = [320, 13]"] ;
284 -> 288 ;
289 [label="X[0] <= 52.5\ngini = 0.0624\nsamples = 310\nvalue = [300, 10]"] ;
288 -> 289 ;
290 [label="X[2] <= 235986.5\ngini = 0.0239\nsamples = 165\nvalue = [163, 2]"] ;
289 -> 290 ;
291 [label="gini = 0.0\nsamples = 116\nvalue = [116, 0]"] ;
290 -> 291 ;
292 [label="X[2] <= 237528.0\ngini = 0.0783\nsamples = 49\nvalue = [47, 2]"] ;
290 -> 292 ;
293 [label="gini = 0.0\nsamples = 1\nvalue = [0, 1]"] ;
292 -> 293 ;
294 [label="X[0] <= 40.5\ngini = 0.0408\nsamples = 48\nvalue = [47, 1]"] ;
292 -> 294 ;
295 [label="X[0] <= 39.5\ngini = 0.1327\nsamples = 14\nvalue = [13, 1]"] ;
294 -> 295 ;
296 [label="gini = 0.0\nsamples = 11\nvalue = [11, 0]"] ;
295 -> 296 ;
297 [label="X[6] <= 7.5\ngini = 0.4444\nsamples = 3\nvalue = [2, 1]"] ;
295 -> 297 ;
298 [label="gini = 0.0\nsamples = 1\nvalue = [0, 1]"] ;
297 -> 298 ;
299 [label="gini = 0.0\nsamples = 2\nvalue = [2, 0]"] ;
297 -> 299 ;
300 [label="gini = 0.0\nsamples = 34\nvalue = [34, 0]"] ;
294 -> 300 ;
301 [label="X[0] <= 54.5\ngini = 0.1043\nsamples = 145\nvalue = [137, 8]"] ;
289 -> 301 ;
302 [label="X[0] <= 53.5\ngini = 0.2449\nsamples = 28\nvalue = [24, 4]"] ;
301 -> 302 ;
303 [label="X[2] <= 247522.5\ngini = 0.1107\nsamples = 17\nvalue = [16, 1]"] ;
302 -> 303 ;
304 [label="gini = 0.0\nsamples = 13\nvalue = [13, 0]"] ;
303 -> 304 ;
305 [label="X[2] <= 282653.0\ngini = 0.375\nsamples = 4\nvalue = [3, 1]"] ;
303 -> 305 ;
306 [label="gini = 0.0\nsamples = 1\nvalue = [0, 1]"] ;
305 -> 306 ;
307 [label="gini = 0.0\nsamples = 3\nvalue = [3, 0]"] ;
305 -> 307 ;
308 [label="X[2] <= 175063.5\ngini = 0.3967\nsamples = 11\nvalue = [8, 3]"] ;
302 -> 308 ;
309 [label="X[4] <= 3.5\ngini = 0.5\nsamples = 6\nvalue = [3, 3]"] ;
308 -> 309 ;
310 [label="gini = 0.0\nsamples = 2\nvalue = [0, 2]"] ;
309 -> 310 ;
311 [label="X[4] <= 4.5\ngini = 0.375\nsamples = 4\nvalue = [3, 1]"] ;
309 -> 311 ;
312 [label="gini = 0.0\nsamples = 3\nvalue = [3, 0]"] ;
311 -> 312 ;
313 [label="gini = 0.0\nsamples = 1\nvalue = [0, 1]"] ;
311 -> 313 ;
314 [label="gini = 0.0\nsamples = 5\nvalue = [5, 0]"] ;
308 -> 314 ;
315 [label="X[0] <= 60.5\ngini = 0.066\nsamples = 117\nvalue = [113, 4]"] ;
301 -> 315 ;
316 [label="X[6] <= 4.5\ngini = 0.1107\nsamples = 68\nvalue = [64, 4]"] ;
315 -> 316 ;
317 [label="X[6] <= 3.5\ngini = 0.2355\nsamples = 22\nvalue = [19, 3]"] ;
316 -> 317 ;
318 [label="X[8] <= 3.0\ngini = 0.1723\nsamples = 21\nvalue = [19, 2]"] ;
317 -> 318 ;
319 [label="X[3] <= 5.0\ngini = 0.5\nsamples = 2\nvalue = [1, 1]"] ;
318 -> 319 ;
320 [label="gini = 0.0\nsamples = 1\nvalue = [1, 0]"] ;
319 -> 320 ;
321 [label="gini = 0.0\nsamples = 1\nvalue = [0, 1]"] ;
319 -> 321 ;
322 [label="X[12] <= 35.0\ngini = 0.0997\nsamples = 19\nvalue = [18, 1]"] ;
318 -> 322 ;
323 [label="X[12] <= 28.0\ngini = 0.4444\nsamples = 3\nvalue = [2, 1]"] ;
322 -> 323 ;
324 [label="gini = 0.0\nsamples = 2\nvalue = [2, 0]"] ;
323 -> 324 ;
325 [label="gini = 0.0\nsamples = 1\nvalue = [0, 1]"] ;
323 -> 325 ;
326 [label="gini = 0.0\nsamples = 16\nvalue = [16, 0]"] ;
322 -> 326 ;
327 [label="gini = 0.0\nsamples = 1\nvalue = [0, 1]"] ;
317 -> 327 ;
328 [label="X[6] <= 11.5\ngini = 0.0425\nsamples = 46\nvalue = [45, 1]"] ;
316 -> 328 ;
329 [label="gini = 0.0\nsamples = 36\nvalue = [36, 0]"] ;
328 -> 329 ;
330 [label="X[6] <= 13.0\ngini = 0.18\nsamples = 10\nvalue = [9, 1]"] ;
328 -> 330 ;
331 [label="X[3] <= 5.0\ngini = 0.5\nsamples = 2\nvalue = [1, 1]"] ;
330 -> 331 ;
332 [label="gini = 0.0\nsamples = 1\nvalue = [0, 1]"] ;
331 -> 332 ;
333 [label="gini = 0.0\nsamples = 1\nvalue = [1, 0]"] ;
331 -> 333 ;
334 [label="gini = 0.0\nsamples = 8\nvalue = [8, 0]"] ;
330 -> 334 ;
335 [label="gini = 0.0\nsamples = 49\nvalue = [49, 0]"] ;
315 -> 335 ;
336 [label="X[2] <= 396326.0\ngini = 0.2268\nsamples = 23\nvalue = [20, 3]"] ;
288 -> 336 ;
337 [label="gini = 0.0\nsamples = 1\nvalue = [0, 1]"] ;
336 -> 337 ;
338 [label="X[0] <= 59.5\ngini = 0.1653\nsamples = 22\nvalue = [20, 2]"] ;
336 -> 338 ;
339 [label="X[6] <= 6.5\ngini = 0.0997\nsamples = 19\nvalue = [18, 1]"] ;
338 -> 339 ;
340 [label="gini = 0.0\nsamples = 11\nvalue = [11, 0]"] ;
339 -> 340 ;
341 [label="X[2] <= 440312.5\ngini = 0.2188\nsamples = 8\nvalue = [7, 1]"] ;
339 -> 341 ;
342 [label="gini = 0.0\nsamples = 6\nvalue = [6, 0]"] ;
341 -> 342 ;
343 [label="X[4] <= 2.5\ngini = 0.5\nsamples = 2\nvalue = [1, 1]"] ;
341 -> 343 ;
344 [label="gini = 0.0\nsamples = 1\nvalue = [1, 0]"] ;
343 -> 344 ;
345 [label="gini = 0.0\nsamples = 1\nvalue = [0, 1]"] ;
343 -> 345 ;
346 [label="X[0] <= 61.5\ngini = 0.4444\nsamples = 3\nvalue = [2, 1]"] ;
338 -> 346 ;
347 [label="gini = 0.0\nsamples = 1\nvalue = [0, 1]"] ;
346 -> 347 ;
348 [label="gini = 0.0\nsamples = 2\nvalue = [2, 0]"] ;
346 -> 348 ;
349 [label="X[1] <= 5.5\ngini = 0.2712\nsamples = 68\nvalue = [57, 11]"] ;
283 -> 349 ;
350 [label="X[2] <= 129309.0\ngini = 0.4938\nsamples = 9\nvalue = [5, 4]"] ;
349 -> 350 ;
351 [label="gini = 0.0\nsamples = 2\nvalue = [0, 2]"] ;
350 -> 351 ;
352 [label="X[3] <= 4.5\ngini = 0.4082\nsamples = 7\nvalue = [5, 2]"] ;
350 -> 352 ;
353 [label="X[0] <= 56.0\ngini = 0.5\nsamples = 4\nvalue = [2, 2]"] ;
352 -> 353 ;
354 [label="gini = 0.0\nsamples = 2\nvalue = [0, 2]"] ;
353 -> 354 ;
355 [label="gini = 0.0\nsamples = 2\nvalue = [2, 0]"] ;
353 -> 355 ;
356 [label="gini = 0.0\nsamples = 3\nvalue = [3, 0]"] ;
352 -> 356 ;
357 [label="X[0] <= 41.0\ngini = 0.2091\nsamples = 59\nvalue = [52, 7]"] ;
349 -> 357 ;
358 [label="X[0] <= 39.5\ngini = 0.48\nsamples = 5\nvalue = [3, 2]"] ;
357 -> 358 ;
359 [label="X[12] <= 37.5\ngini = 0.375\nsamples = 4\nvalue = [3, 1]"] ;
358 -> 359 ;
360 [label="gini = 0.0\nsamples = 1\nvalue = [0, 1]"] ;
359 -> 360 ;
361 [label="gini = 0.0\nsamples = 3\nvalue = [3, 0]"] ;
359 -> 361 ;
362 [label="gini = 0.0\nsamples = 1\nvalue = [0, 1]"] ;
358 -> 362 ;
363 [label="X[0] <= 65.5\ngini = 0.168\nsamples = 54\nvalue = [49, 5]"] ;
357 -> 363 ;
364 [label="X[6] <= 11.0\ngini = 0.142\nsamples = 52\nvalue = [48, 4]"] ;
363 -> 364 ;
365 [label="X[2] <= 46883.0\ngini = 0.0526\nsamples = 37\nvalue = [36, 1]"] ;
364 -> 365 ;
366 [label="X[0] <= 60.0\ngini = 0.4444\nsamples = 3\nvalue = [2, 1]"] ;
365 -> 366 ;
367 [label="gini = 0.0\nsamples = 1\nvalue = [0, 1]"] ;
366 -> 367 ;
368 [label="gini = 0.0\nsamples = 2\nvalue = [2, 0]"] ;
366 -> 368 ;
369 [label="gini = 0.0\nsamples = 34\nvalue = [34, 0]"] ;
365 -> 369 ;
370 [label="X[0] <= 57.5\ngini = 0.32\nsamples = 15\nvalue = [12, 3]"] ;
364 -> 370 ;
371 [label="gini = 0.0\nsamples = 6\nvalue = [6, 0]"] ;
370 -> 371 ;
372 [label="X[1] <= 6.5\ngini = 0.4444\nsamples = 9\nvalue = [6, 3]"] ;
370 -> 372 ;
373 [label="X[2] <= 148243.5\ngini = 0.5\nsamples = 6\nvalue = [3, 3]"] ;
372 -> 373 ;
374 [label="gini = 0.0\nsamples = 2\nvalue = [0, 2]"] ;
373 -> 374 ;
375 [label="X[2] <= 183592.0\ngini = 0.375\nsamples = 4\nvalue = [3, 1]"] ;
373 -> 375 ;
376 [label="gini = 0.0\nsamples = 2\nvalue = [2, 0]"] ;
375 -> 376 ;
377 [label="X[6] <= 13.0\ngini = 0.5\nsamples = 2\nvalue = [1, 1]"] ;
375 -> 377 ;
378 [label="gini = 0.0\nsamples = 1\nvalue = [0, 1]"] ;
377 -> 378 ;
379 [label="gini = 0.0\nsamples = 1\nvalue = [1, 0]"] ;
377 -> 379 ;
380 [label="gini = 0.0\nsamples = 3\nvalue = [3, 0]"] ;
372 -> 380 ;
381 [label="X[4] <= 4.5\ngini = 0.5\nsamples = 2\nvalue = [1, 1]"] ;
363 -> 381 ;
382 [label="gini = 0.0\nsamples = 1\nvalue = [1, 0]"] ;
381 -> 382 ;
383 [label="gini = 0.0\nsamples = 1\nvalue = [0, 1]"] ;
381 -> 383 ;
384 [label="X[10] <= 4164.0\ngini = 0.3578\nsamples = 90\nvalue = [69, 21]"] ;
282 -> 384 ;
385 [label="X[10] <= 1203.5\ngini = 0.3484\nsamples = 89\nvalue = [69, 20]"] ;
384 -> 385 ;
386 [label="X[12] <= 82.0\ngini = 0.3719\nsamples = 81\nvalue = [61, 20]"] ;
385 -> 386 ;
387 [label="X[12] <= 77.5\ngini = 0.3944\nsamples = 74\nvalue = [54, 20]"] ;
386 -> 387 ;
388 [label="X[4] <= 3.5\ngini = 0.3851\nsamples = 73\nvalue = [54, 19]"] ;
387 -> 388 ;
389 [label="X[2] <= 123485.0\ngini = 0.2449\nsamples = 21\nvalue = [18, 3]"] ;
388 -> 389 ;
390 [label="X[0] <= 54.5\ngini = 0.4444\nsamples = 3\nvalue = [1, 2]"] ;
389 -> 390 ;
391 [label="gini = 0.0\nsamples = 2\nvalue = [0, 2]"] ;
390 -> 391 ;
392 [label="gini = 0.0\nsamples = 1\nvalue = [1, 0]"] ;
390 -> 392 ;
393 [label="X[2] <= 180657.0\ngini = 0.1049\nsamples = 18\nvalue = [17, 1]"] ;
389 -> 393 ;
394 [label="X[6] <= 5.5\ngini = 0.2778\nsamples = 6\nvalue = [5, 1]"] ;
393 -> 394 ;
395 [label="gini = 0.0\nsamples = 1\nvalue = [0, 1]"] ;
394 -> 395 ;
396 [label="gini = 0.0\nsamples = 5\nvalue = [5, 0]"] ;
394 -> 396 ;
397 [label="gini = 0.0\nsamples = 12\nvalue = [12, 0]"] ;
393 -> 397 ;
398 [label="X[6] <= 10.0\ngini = 0.426\nsamples = 52\nvalue = [36, 16]"] ;
388 -> 398 ;
399 [label="X[2] <= 147119.0\ngini = 0.3682\nsamples = 37\nvalue = [28, 9]"] ;
398 -> 399 ;
400 [label="X[6] <= 3.5\ngini = 0.1327\nsamples = 14\nvalue = [13, 1]"] ;
399 -> 400 ;
401 [label="X[4] <= 4.5\ngini = 0.4444\nsamples = 3\nvalue = [2, 1]"] ;
400 -> 401 ;
402 [label="gini = 0.0\nsamples = 1\nvalue = [0, 1]"] ;
401 -> 402 ;
403 [label="gini = 0.0\nsamples = 2\nvalue = [2, 0]"] ;
401 -> 403 ;
404 [label="gini = 0.0\nsamples = 11\nvalue = [11, 0]"] ;
400 -> 404 ;
405 [label="X[2] <= 161840.0\ngini = 0.4537\nsamples = 23\nvalue = [15, 8]"] ;
399 -> 405 ;
406 [label="gini = 0.0\nsamples = 3\nvalue = [0, 3]"] ;
405 -> 406 ;
407 [label="X[6] <= 4.5\ngini = 0.375\nsamples = 20\nvalue = [15, 5]"] ;
405 -> 407 ;
408 [label="X[0] <= 49.0\ngini = 0.5\nsamples = 8\nvalue = [4, 4]"] ;
407 -> 408 ;
409 [label="gini = 0.0\nsamples = 3\nvalue = [0, 3]"] ;
408 -> 409 ;
410 [label="X[12] <= 52.5\ngini = 0.32\nsamples = 5\nvalue = [4, 1]"] ;
408 -> 410 ;
411 [label="X[2] <= 228556.0\ngini = 0.5\nsamples = 2\nvalue = [1, 1]"] ;
410 -> 411 ;
412 [label="gini = 0.0\nsamples = 1\nvalue = [0, 1]"] ;
411 -> 412 ;
413 [label="gini = 0.0\nsamples = 1\nvalue = [1, 0]"] ;
411 -> 413 ;
414 [label="gini = 0.0\nsamples = 3\nvalue = [3, 0]"] ;
410 -> 414 ;
415 [label="X[0] <= 56.5\ngini = 0.1528\nsamples = 12\nvalue = [11, 1]"] ;
407 -> 415 ;
416 [label="gini = 0.0\nsamples = 9\nvalue = [9, 0]"] ;
415 -> 416 ;
417 [label="X[6] <= 5.5\ngini = 0.4444\nsamples = 3\nvalue = [2, 1]"] ;
415 -> 417 ;
418 [label="gini = 0.0\nsamples = 2\nvalue = [2, 0]"] ;
417 -> 418 ;
419 [label="gini = 0.0\nsamples = 1\nvalue = [0, 1]"] ;
417 -> 419 ;
420 [label="X[4] <= 4.5\ngini = 0.4978\nsamples = 15\nvalue = [8, 7]"] ;
398 -> 420 ;
421 [label="X[2] <= 125820.5\ngini = 0.42\nsamples = 10\nvalue = [7, 3]"] ;
420 -> 421 ;
422 [label="gini = 0.0\nsamples = 4\nvalue = [4, 0]"] ;
421 -> 422 ;
423 [label="X[0] <= 59.0\ngini = 0.5\nsamples = 6\nvalue = [3, 3]"] ;
421 -> 423 ;
424 [label="X[2] <= 161234.5\ngini = 0.375\nsamples = 4\nvalue = [3, 1]"] ;
423 -> 424 ;
425 [label="gini = 0.0\nsamples = 1\nvalue = [0, 1]"] ;
424 -> 425 ;
426 [label="gini = 0.0\nsamples = 3\nvalue = [3, 0]"] ;
424 -> 426 ;
427 [label="gini = 0.0\nsamples = 2\nvalue = [0, 2]"] ;
423 -> 427 ;
428 [label="X[2] <= 158454.0\ngini = 0.32\nsamples = 5\nvalue = [1, 4]"] ;
420 -> 428 ;
429 [label="gini = 0.0\nsamples = 3\nvalue = [0, 3]"] ;
428 -> 429 ;
430 [label="X[2] <= 273367.0\ngini = 0.5\nsamples = 2\nvalue = [1, 1]"] ;
428 -> 430 ;
431 [label="gini = 0.0\nsamples = 1\nvalue = [1, 0]"] ;
430 -> 431 ;
432 [label="gini = 0.0\nsamples = 1\nvalue = [0, 1]"] ;
430 -> 432 ;
433 [label="gini = 0.0\nsamples = 1\nvalue = [0, 1]"] ;
387 -> 433 ;
434 [label="gini = 0.0\nsamples = 7\nvalue = [7, 0]"] ;
386 -> 434 ;
435 [label="gini = 0.0\nsamples = 8\nvalue = [8, 0]"] ;
385 -> 435 ;
436 [label="gini = 0.0\nsamples = 1\nvalue = [0, 1]"] ;
384 -> 436 ;
437 [label="X[2] <= 28057.0\ngini = 0.0171\nsamples = 116\nvalue = [115, 1]"] ;
79 -> 437 ;
438 [label="gini = 0.0\nsamples = 1\nvalue = [0, 1]"] ;
437 -> 438 ;
439 [label="gini = 0.0\nsamples = 115\nvalue = [115, 0]"] ;
437 -> 439 ;
440 [label="X[11] <= 1989.5\ngini = 0.4953\nsamples = 31\nvalue = [17, 14]"] ;
4 -> 440 ;
441 [label="X[8] <= 1.0\ngini = 0.2188\nsamples = 16\nvalue = [2, 14]"] ;
440 -> 441 ;
442 [label="gini = 0.0\nsamples = 1\nvalue = [1, 0]"] ;
441 -> 442 ;
443 [label="X[1] <= 3.0\ngini = 0.1244\nsamples = 15\nvalue = [1, 14]"] ;
441 -> 443 ;
444 [label="X[11] <= 1894.5\ngini = 0.4444\nsamples = 3\nvalue = [1, 2]"] ;
443 -> 444 ;
445 [label="gini = 0.0\nsamples = 2\nvalue = [0, 2]"] ;
444 -> 445 ;
446 [label="gini = 0.0\nsamples = 1\nvalue = [1, 0]"] ;
444 -> 446 ;
447 [label="gini = 0.0\nsamples = 12\nvalue = [0, 12]"] ;
443 -> 447 ;
448 [label="gini = 0.0\nsamples = 15\nvalue = [15, 0]"] ;
440 -> 448 ;
449 [label="X[11] <= 1782.5\ngini = 0.4453\nsamples = 7307\nvalue = [4862, 2445]"] ;
3 -> 449 ;
450 [label="X[0] <= 35.5\ngini = 0.4329\nsamples = 7007\nvalue = [4787, 2220]"] ;
449 -> 450 ;
451 [label="X[0] <= 29.5\ngini = 0.3208\nsamples = 2272\nvalue = [1816, 456]"] ;
450 -> 451 ;
452 [label="X[0] <= 24.5\ngini = 0.2337\nsamples = 962\nvalue = [832, 130]"] ;
451 -> 452 ;
453 [label="X[6] <= 13.5\ngini = 0.1121\nsamples = 235\nvalue = [221, 14]"] ;
452 -> 453 ;
454 [label="X[10] <= 4083.5\ngini = 0.0707\nsamples = 218\nvalue = [210, 8]"] ;
453 -> 454 ;
455 [label="X[12] <= 71.0\ngini = 0.0624\nsamples = 217\nvalue = [210, 7]"] ;
454 -> 455 ;
456 [label="X[12] <= 44.5\ngini = 0.0543\nsamples = 215\nvalue = [209, 6]"] ;
455 -> 456 ;
457 [label="X[6] <= 2.0\ngini = 0.0124\nsamples = 160\nvalue = [159, 1]"] ;
456 -> 457 ;
458 [label="X[2] <= 378509.0\ngini = 0.1172\nsamples = 16\nvalue = [15, 1]"] ;
457 -> 458 ;
459 [label="gini = 0.0\nsamples = 15\nvalue = [15, 0]"] ;
458 -> 459 ;
460 [label="gini = 0.0\nsamples = 1\nvalue = [0, 1]"] ;
458 -> 460 ;
461 [label="gini = 0.0\nsamples = 144\nvalue = [144, 0]"] ;
457 -> 461 ;
462 [label="X[6] <= 12.5\ngini = 0.1653\nsamples = 55\nvalue = [50, 5]"] ;
456 -> 462 ;
463 [label="X[2] <= 449672.0\ngini = 0.1372\nsamples = 54\nvalue = [50, 4]"] ;
462 -> 463 ;
464 [label="X[2] <= 51999.5\ngini = 0.1107\nsamples = 51\nvalue = [48, 3]"] ;
463 -> 464 ;
465 [label="X[4] <= 10.0\ngini = 0.375\nsamples = 4\nvalue = [3, 1]"] ;
464 -> 465 ;
466 [label="gini = 0.0\nsamples = 3\nvalue = [3, 0]"] ;
465 -> 466 ;
467 [label="gini = 0.0\nsamples = 1\nvalue = [0, 1]"] ;
465 -> 467 ;
468 [label="X[0] <= 23.5\ngini = 0.0815\nsamples = 47\nvalue = [45, 2]"] ;
464 -> 468 ;
469 [label="gini = 0.0\nsamples = 26\nvalue = [26, 0]"] ;
468 -> 469 ;
470 [label="X[2] <= 245716.0\ngini = 0.1723\nsamples = 21\nvalue = [19, 2]"] ;
468 -> 470 ;
471 [label="X[2] <= 232519.0\ngini = 0.2778\nsamples = 12\nvalue = [10, 2]"] ;
470 -> 471 ;
472 [label="X[6] <= 4.0\ngini = 0.1653\nsamples = 11\nvalue = [10, 1]"] ;
471 -> 472 ;
473 [label="X[4] <= 9.5\ngini = 0.32\nsamples = 5\nvalue = [4, 1]"] ;
472 -> 473 ;
474 [label="X[2] <= 211802.0\ngini = 0.5\nsamples = 2\nvalue = [1, 1]"] ;
473 -> 474 ;
475 [label="gini = 0.0\nsamples = 1\nvalue = [0, 1]"] ;
474 -> 475 ;
476 [label="gini = 0.0\nsamples = 1\nvalue = [1, 0]"] ;
474 -> 476 ;
477 [label="gini = 0.0\nsamples = 3\nvalue = [3, 0]"] ;
473 -> 477 ;
478 [label="gini = 0.0\nsamples = 6\nvalue = [6, 0]"] ;
472 -> 478 ;
479 [label="gini = 0.0\nsamples = 1\nvalue = [0, 1]"] ;
471 -> 479 ;
480 [label="gini = 0.0\nsamples = 9\nvalue = [9, 0]"] ;
470 -> 480 ;
481 [label="X[2] <= 485113.0\ngini = 0.4444\nsamples = 3\nvalue = [2, 1]"] ;
463 -> 481 ;
482 [label="gini = 0.0\nsamples = 1\nvalue = [0, 1]"] ;
481 -> 482 ;
483 [label="gini = 0.0\nsamples = 2\nvalue = [2, 0]"] ;
481 -> 483 ;
484 [label="gini = 0.0\nsamples = 1\nvalue = [0, 1]"] ;
462 -> 484 ;
485 [label="X[4] <= 9.5\ngini = 0.5\nsamples = 2\nvalue = [1, 1]"] ;
455 -> 485 ;
486 [label="gini = 0.0\nsamples = 1\nvalue = [1, 0]"] ;
485 -> 486 ;
487 [label="gini = 0.0\nsamples = 1\nvalue = [0, 1]"] ;
485 -> 487 ;
488 [label="gini = 0.0\nsamples = 1\nvalue = [0, 1]"] ;
454 -> 488 ;
489 [label="X[12] <= 46.5\ngini = 0.4567\nsamples = 17\nvalue = [11, 6]"] ;
453 -> 489 ;
490 [label="X[3] <= 13.0\ngini = 0.1975\nsamples = 9\nvalue = [8, 1]"] ;
489 -> 490 ;
491 [label="gini = 0.0\nsamples = 6\nvalue = [6, 0]"] ;
490 -> 491 ;
492 [label="X[0] <= 23.5\ngini = 0.4444\nsamples = 3\nvalue = [2, 1]"] ;
490 -> 492 ;
493 [label="gini = 0.0\nsamples = 2\nvalue = [2, 0]"] ;
492 -> 493 ;
494 [label="gini = 0.0\nsamples = 1\nvalue = [0, 1]"] ;
492 -> 494 ;
495 [label="X[12] <= 55.0\ngini = 0.4688\nsamples = 8\nvalue = [3, 5]"] ;
489 -> 495 ;
496 [label="gini = 0.0\nsamples = 3\nvalue = [0, 3]"] ;
495 -> 496 ;
497 [label="X[2] <= 113409.5\ngini = 0.48\nsamples = 5\nvalue = [3, 2]"] ;
495 -> 497 ;
498 [label="X[4] <= 9.5\ngini = 0.4444\nsamples = 3\nvalue = [1, 2]"] ;
497 -> 498 ;
499 [label="gini = 0.0\nsamples = 1\nvalue = [1, 0]"] ;
498 -> 499 ;
500 [label="gini = 0.0\nsamples = 2\nvalue = [0, 2]"] ;
498 -> 500 ;
501 [label="gini = 0.0\nsamples = 2\nvalue = [2, 0]"] ;
497 -> 501 ;
502 [label="X[4] <= 9.5\ngini = 0.2682\nsamples = 727\nvalue = [611, 116]"] ;
452 -> 502 ;
503 [label="X[12] <= 63.5\ngini = 0.2074\nsamples = 417\nvalue = [368, 49]"] ;
502 -> 503 ;
504 [label="X[2] <= 278932.5\ngini = 0.1936\nsamples = 396\nvalue = [353, 43]"] ;
503 -> 504 ;
505 [label="X[2] <= 239753.0\ngini = 0.2143\nsamples = 336\nvalue = [295, 41]"] ;
504 -> 505 ;
506 [label="X[5] <= 1.5\ngini = 0.1842\nsamples = 302\nvalue = [271, 31]"] ;
505 -> 506 ;
507 [label="X[0] <= 26.5\ngini = 0.5\nsamples = 2\nvalue = [1, 1]"] ;
506 -> 507 ;
508 [label="gini = 0.0\nsamples = 1\nvalue = [1, 0]"] ;
507 -> 508 ;
509 [label="gini = 0.0\nsamples = 1\nvalue = [0, 1]"] ;
507 -> 509 ;
510 [label="X[6] <= 9.0\ngini = 0.18\nsamples = 300\nvalue = [270, 30]"] ;
506 -> 510 ;
511 [label="X[2] <= 148719.0\ngini = 0.1496\nsamples = 221\nvalue = [203, 18]"] ;
510 -> 511 ;
512 [label="X[0] <= 28.5\ngini = 0.0915\nsamples = 104\nvalue = [99, 5]"] ;
511 -> 512 ;
513 [label="X[6] <= 6.5\ngini = 0.1292\nsamples = 72\nvalue = [67, 5]"] ;
512 -> 513 ;
514 [label="X[0] <= 27.5\ngini = 0.1653\nsamples = 55\nvalue = [50, 5]"] ;
513 -> 514 ;
515 [label="X[2] <= 81413.0\ngini = 0.1049\nsamples = 36\nvalue = [34, 2]"] ;
514 -> 515 ;
516 [label="gini = 0.0\nsamples = 13\nvalue = [13, 0]"] ;
515 -> 516 ;
517 [label="X[2] <= 83258.5\ngini = 0.1588\nsamples = 23\nvalue = [21, 2]"] ;
515 -> 517 ;
518 [label="gini = 0.0\nsamples = 1\nvalue = [0, 1]"] ;
517 -> 518 ;
519 [label="X[0] <= 26.5\ngini = 0.0868\nsamples = 22\nvalue = [21, 1]"] ;
517 -> 519 ;
520 [label="X[2] <= 113258.5\ngini = 0.1653\nsamples = 11\nvalue = [10, 1]"] ;
519 -> 520 ;
521 [label="gini = 0.0\nsamples = 6\nvalue = [6, 0]"] ;
520 -> 521 ;
522 [label="X[2] <= 117744.0\ngini = 0.32\nsamples = 5\nvalue = [4, 1]"] ;
520 -> 522 ;
523 [label="gini = 0.0\nsamples = 1\nvalue = [0, 1]"] ;
522 -> 523 ;
524 [label="gini = 0.0\nsamples = 4\nvalue = [4, 0]"] ;
522 -> 524 ;
525 [label="gini = 0.0\nsamples = 11\nvalue = [11, 0]"] ;
519 -> 525 ;
526 [label="X[6] <= 3.5\ngini = 0.2659\nsamples = 19\nvalue = [16, 3]"] ;
514 -> 526 ;
527 [label="X[2] <= 78670.0\ngini = 0.1653\nsamples = 11\nvalue = [10, 1]"] ;
526 -> 527 ;
528 [label="X[2] <= 63806.5\ngini = 0.32\nsamples = 5\nvalue = [4, 1]"] ;
527 -> 528 ;
529 [label="gini = 0.0\nsamples = 4\nvalue = [4, 0]"] ;
528 -> 529 ;
530 [label="gini = 0.0\nsamples = 1\nvalue = [0, 1]"] ;
528 -> 530 ;
531 [label="gini = 0.0\nsamples = 6\nvalue = [6, 0]"] ;
527 -> 531 ;
532 [label="X[12] <= 42.5\ngini = 0.375\nsamples = 8\nvalue = [6, 2]"] ;
526 -> 532 ;
533 [label="X[2] <= 101645.0\ngini = 0.2449\nsamples = 7\nvalue = [6, 1]"] ;
532 -> 533 ;
534 [label="gini = 0.0\nsamples = 4\nvalue = [4, 0]"] ;
533 -> 534 ;
535 [label="X[2] <= 138374.5\ngini = 0.4444\nsamples = 3\nvalue = [2, 1]"] ;
533 -> 535 ;
536 [label="gini = 0.0\nsamples = 1\nvalue = [0, 1]"] ;
535 -> 536 ;
537 [label="gini = 0.0\nsamples = 2\nvalue = [2, 0]"] ;
535 -> 537 ;
538 [label="gini = 0.0\nsamples = 1\nvalue = [0, 1]"] ;
532 -> 538 ;
539 [label="gini = 0.0\nsamples = 17\nvalue = [17, 0]"] ;
513 -> 539 ;
540 [label="gini = 0.0\nsamples = 32\nvalue = [32, 0]"] ;
512 -> 540 ;
541 [label="X[2] <= 161126.0\ngini = 0.1975\nsamples = 117\nvalue = [104, 13]"] ;
511 -> 541 ;
542 [label="X[0] <= 27.5\ngini = 0.4592\nsamples = 14\nvalue = [9, 5]"] ;
541 -> 542 ;
543 [label="X[2] <= 150919.5\ngini = 0.2449\nsamples = 7\nvalue = [6, 1]"] ;
542 -> 543 ;
544 [label="gini = 0.0\nsamples = 1\nvalue = [0, 1]"] ;
543 -> 544 ;
545 [label="gini = 0.0\nsamples = 6\nvalue = [6, 0]"] ;
543 -> 545 ;
546 [label="X[6] <= 3.5\ngini = 0.4898\nsamples = 7\nvalue = [3, 4]"] ;
542 -> 546 ;
547 [label="gini = 0.0\nsamples = 3\nvalue = [0, 3]"] ;
546 -> 547 ;
548 [label="X[2] <= 160941.5\ngini = 0.375\nsamples = 4\nvalue = [3, 1]"] ;
546 -> 548 ;
549 [label="gini = 0.0\nsamples = 3\nvalue = [3, 0]"] ;
548 -> 549 ;
550 [label="gini = 0.0\nsamples = 1\nvalue = [0, 1]"] ;
548 -> 550 ;
551 [label="X[2] <= 200830.5\ngini = 0.1433\nsamples = 103\nvalue = [95, 8]"] ;
541 -> 551 ;
552 [label="X[0] <= 25.5\ngini = 0.0921\nsamples = 62\nvalue = [59, 3]"] ;
551 -> 552 ;
553 [label="X[2] <= 179478.0\ngini = 0.32\nsamples = 5\nvalue = [4, 1]"] ;
552 -> 553 ;
554 [label="gini = 0.0\nsamples = 1\nvalue = [0, 1]"] ;
553 -> 554 ;
555 [label="gini = 0.0\nsamples = 4\nvalue = [4, 0]"] ;
553 -> 555 ;
556 [label="X[6] <= 6.5\ngini = 0.0677\nsamples = 57\nvalue = [55, 2]"] ;
552 -> 556 ;
557 [label="gini = 0.0\nsamples = 33\nvalue = [33, 0]"] ;
556 -> 557 ;
558 [label="X[12] <= 49.0\ngini = 0.1528\nsamples = 24\nvalue = [22, 2]"] ;
556 -> 558 ;
559 [label="X[0] <= 28.5\ngini = 0.095\nsamples = 20\nvalue = [19, 1]"] ;
558 -> 559 ;
560 [label="gini = 0.0\nsamples = 14\nvalue = [14, 0]"] ;
559 -> 560 ;
561 [label="X[2] <= 177828.5\ngini = 0.2778\nsamples = 6\nvalue = [5, 1]"] ;
559 -> 561 ;
562 [label="X[6] <= 7.5\ngini = 0.5\nsamples = 2\nvalue = [1, 1]"] ;
561 -> 562 ;
563 [label="gini = 0.0\nsamples = 1\nvalue = [0, 1]"] ;
562 -> 563 ;
564 [label="gini = 0.0\nsamples = 1\nvalue = [1, 0]"] ;
562 -> 564 ;
565 [label="gini = 0.0\nsamples = 4\nvalue = [4, 0]"] ;
561 -> 565 ;
566 [label="X[0] <= 27.5\ngini = 0.375\nsamples = 4\nvalue = [3, 1]"] ;
558 -> 566 ;
567 [label="X[12] <= 52.5\ngini = 0.5\nsamples = 2\nvalue = [1, 1]"] ;
566 -> 567 ;
568 [label="gini = 0.0\nsamples = 1\nvalue = [0, 1]"] ;
567 -> 568 ;
569 [label="gini = 0.0\nsamples = 1\nvalue = [1, 0]"] ;
567 -> 569 ;
570 [label="gini = 0.0\nsamples = 2\nvalue = [2, 0]"] ;
566 -> 570 ;
571 [label="X[2] <= 201429.0\ngini = 0.2142\nsamples = 41\nvalue = [36, 5]"] ;
551 -> 571 ;
572 [label="gini = 0.0\nsamples = 1\nvalue = [0, 1]"] ;
571 -> 572 ;
573 [label="X[2] <= 207656.5\ngini = 0.18\nsamples = 40\nvalue = [36, 4]"] ;
571 -> 573 ;
574 [label="X[2] <= 206278.5\ngini = 0.355\nsamples = 13\nvalue = [10, 3]"] ;
573 -> 574 ;
575 [label="X[0] <= 28.5\ngini = 0.18\nsamples = 10\nvalue = [9, 1]"] ;
574 -> 575 ;
576 [label="gini = 0.0\nsamples = 7\nvalue = [7, 0]"] ;
575 -> 576 ;
577 [label="X[12] <= 42.5\ngini = 0.4444\nsamples = 3\nvalue = [2, 1]"] ;
575 -> 577 ;
578 [label="gini = 0.0\nsamples = 1\nvalue = [0, 1]"] ;
577 -> 578 ;
579 [label="gini = 0.0\nsamples = 2\nvalue = [2, 0]"] ;
577 -> 579 ;
580 [label="X[6] <= 5.0\ngini = 0.4444\nsamples = 3\nvalue = [1, 2]"] ;
574 -> 580 ;
581 [label="gini = 0.0\nsamples = 2\nvalue = [0, 2]"] ;
580 -> 581 ;
582 [label="gini = 0.0\nsamples = 1\nvalue = [1, 0]"] ;
580 -> 582 ;
583 [label="X[2] <= 233221.5\ngini = 0.0713\nsamples = 27\nvalue = [26, 1]"] ;
573 -> 583 ;
584 [label="gini = 0.0\nsamples = 21\nvalue = [21, 0]"] ;
583 -> 584 ;
585 [label="X[2] <= 234585.0\ngini = 0.2778\nsamples = 6\nvalue = [5, 1]"] ;
583 -> 585 ;
586 [label="gini = 0.0\nsamples = 1\nvalue = [0, 1]"] ;
585 -> 586 ;
587 [label="gini = 0.0\nsamples = 5\nvalue = [5, 0]"] ;
585 -> 587 ;
588 [label="X[1] <= 1.5\ngini = 0.2577\nsamples = 79\nvalue = [67, 12]"] ;
510 -> 588 ;
589 [label="gini = 0.0\nsamples = 1\nvalue = [0, 1]"] ;
588 -> 589 ;
590 [label="X[2] <= 142129.5\ngini = 0.2423\nsamples = 78\nvalue = [67, 11]"] ;
588 -> 590 ;
591 [label="X[2] <= 134614.0\ngini = 0.3662\nsamples = 29\nvalue = [22, 7]"] ;
590 -> 591 ;
592 [label="X[8] <= 1.5\ngini = 0.3018\nsamples = 27\nvalue = [22, 5]"] ;
591 -> 592 ;
593 [label="gini = 0.0\nsamples = 1\nvalue = [0, 1]"] ;
592 -> 593 ;
594 [label="X[2] <= 71613.0\ngini = 0.2604\nsamples = 26\nvalue = [22, 4]"] ;
592 -> 594 ;
595 [label="gini = 0.0\nsamples = 9\nvalue = [9, 0]"] ;
594 -> 595 ;
596 [label="X[2] <= 87897.0\ngini = 0.3599\nsamples = 17\nvalue = [13, 4]"] ;
594 -> 596 ;
597 [label="X[6] <= 13.0\ngini = 0.4444\nsamples = 3\nvalue = [1, 2]"] ;
596 -> 597 ;
598 [label="gini = 0.0\nsamples = 1\nvalue = [1, 0]"] ;
597 -> 598 ;
599 [label="gini = 0.0\nsamples = 2\nvalue = [0, 2]"] ;
597 -> 599 ;
600 [label="X[6] <= 10.5\ngini = 0.2449\nsamples = 14\nvalue = [12, 2]"] ;
596 -> 600 ;
601 [label="gini = 0.0\nsamples = 1\nvalue = [0, 1]"] ;
600 -> 601 ;
602 [label="X[2] <= 127653.5\ngini = 0.142\nsamples = 13\nvalue = [12, 1]"] ;
600 -> 602 ;
603 [label="gini = 0.0\nsamples = 10\nvalue = [10, 0]"] ;
602 -> 603 ;
604 [label="X[2] <= 132782.0\ngini = 0.4444\nsamples = 3\nvalue = [2, 1]"] ;
602 -> 604 ;
605 [label="gini = 0.0\nsamples = 1\nvalue = [0, 1]"] ;
604 -> 605 ;
606 [label="gini = 0.0\nsamples = 2\nvalue = [2, 0]"] ;
604 -> 606 ;
607 [label="gini = 0.0\nsamples = 2\nvalue = [0, 2]"] ;
591 -> 607 ;
608 [label="X[2] <= 187593.5\ngini = 0.1499\nsamples = 49\nvalue = [45, 4]"] ;
590 -> 608 ;
609 [label="gini = 0.0\nsamples = 27\nvalue = [27, 0]"] ;
608 -> 609 ;
610 [label="X[2] <= 193018.5\ngini = 0.2975\nsamples = 22\nvalue = [18, 4]"] ;
608 -> 610 ;
611 [label="X[8] <= 2.5\ngini = 0.4444\nsamples = 3\nvalue = [1, 2]"] ;
610 -> 611 ;
612 [label="gini = 0.0\nsamples = 1\nvalue = [1, 0]"] ;
611 -> 612 ;
613 [label="gini = 0.0\nsamples = 2\nvalue = [0, 2]"] ;
611 -> 613 ;
614 [label="X[6] <= 10.5\ngini = 0.1884\nsamples = 19\nvalue = [17, 2]"] ;
610 -> 614 ;
615 [label="gini = 0.0\nsamples = 1\nvalue = [0, 1]"] ;
614 -> 615 ;
616 [label="X[12] <= 51.5\ngini = 0.1049\nsamples = 18\nvalue = [17, 1]"] ;
614 -> 616 ;
617 [label="gini = 0.0\nsamples = 16\nvalue = [16, 0]"] ;
616 -> 617 ;
618 [label="X[2] <= 205516.0\ngini = 0.5\nsamples = 2\nvalue = [1, 1]"] ;
616 -> 618 ;
619 [label="gini = 0.0\nsamples = 1\nvalue = [1, 0]"] ;
618 -> 619 ;
620 [label="gini = 0.0\nsamples = 1\nvalue = [0, 1]"] ;
618 -> 620 ;
621 [label="X[2] <= 241316.5\ngini = 0.4152\nsamples = 34\nvalue = [24, 10]"] ;
505 -> 621 ;
622 [label="gini = 0.0\nsamples = 2\nvalue = [0, 2]"] ;
621 -> 622 ;
623 [label="X[8] <= 3.0\ngini = 0.375\nsamples = 32\nvalue = [24, 8]"] ;
621 -> 623 ;
624 [label="gini = 0.0\nsamples = 1\nvalue = [0, 1]"] ;
623 -> 624 ;
625 [label="X[1] <= 3.0\ngini = 0.3496\nsamples = 31\nvalue = [24, 7]"] ;
623 -> 625 ;
626 [label="X[6] <= 9.5\ngini = 0.4444\nsamples = 3\nvalue = [1, 2]"] ;
625 -> 626 ;
627 [label="gini = 0.0\nsamples = 1\nvalue = [1, 0]"] ;
626 -> 627 ;
628 [label="gini = 0.0\nsamples = 2\nvalue = [0, 2]"] ;
626 -> 628 ;
629 [label="X[12] <= 42.5\ngini = 0.2934\nsamples = 28\nvalue = [23, 5]"] ;
625 -> 629 ;
630 [label="gini = 0.0\nsamples = 13\nvalue = [13, 0]"] ;
629 -> 630 ;
631 [label="X[12] <= 51.0\ngini = 0.4444\nsamples = 15\nvalue = [10, 5]"] ;
629 -> 631 ;
632 [label="X[6] <= 3.5\ngini = 0.5\nsamples = 10\nvalue = [5, 5]"] ;
631 -> 632 ;
633 [label="X[2] <= 273723.0\ngini = 0.32\nsamples = 5\nvalue = [4, 1]"] ;
632 -> 633 ;
634 [label="gini = 0.0\nsamples = 4\nvalue = [4, 0]"] ;
633 -> 634 ;
635 [label="gini = 0.0\nsamples = 1\nvalue = [0, 1]"] ;
633 -> 635 ;
636 [label="X[2] <= 264379.0\ngini = 0.32\nsamples = 5\nvalue = [1, 4]"] ;
632 -> 636 ;
637 [label="X[0] <= 27.5\ngini = 0.5\nsamples = 2\nvalue = [1, 1]"] ;
636 -> 637 ;
638 [label="gini = 0.0\nsamples = 1\nvalue = [1, 0]"] ;
637 -> 638 ;
639 [label="gini = 0.0\nsamples = 1\nvalue = [0, 1]"] ;
637 -> 639 ;
640 [label="gini = 0.0\nsamples = 3\nvalue = [0, 3]"] ;
636 -> 640 ;
641 [label="gini = 0.0\nsamples = 5\nvalue = [5, 0]"] ;
631 -> 641 ;
642 [label="X[6] <= 4.5\ngini = 0.0644\nsamples = 60\nvalue = [58, 2]"] ;
504 -> 642 ;
643 [label="X[6] <= 3.5\ngini = 0.1528\nsamples = 24\nvalue = [22, 2]"] ;
642 -> 643 ;
644 [label="X[0] <= 27.5\ngini = 0.095\nsamples = 20\nvalue = [19, 1]"] ;
643 -> 644 ;
645 [label="X[0] <= 26.5\ngini = 0.2188\nsamples = 8\nvalue = [7, 1]"] ;
644 -> 645 ;
646 [label="gini = 0.0\nsamples = 4\nvalue = [4, 0]"] ;
645 -> 646 ;
647 [label="X[2] <= 408058.0\ngini = 0.375\nsamples = 4\nvalue = [3, 1]"] ;
645 -> 647 ;
648 [label="X[2] <= 351530.5\ngini = 0.5\nsamples = 2\nvalue = [1, 1]"] ;
647 -> 648 ;
649 [label="gini = 0.0\nsamples = 1\nvalue = [1, 0]"] ;
648 -> 649 ;
650 [label="gini = 0.0\nsamples = 1\nvalue = [0, 1]"] ;
648 -> 650 ;
651 [label="gini = 0.0\nsamples = 2\nvalue = [2, 0]"] ;
647 -> 651 ;
652 [label="gini = 0.0\nsamples = 12\nvalue = [12, 0]"] ;
644 -> 652 ;
653 [label="X[2] <= 360613.5\ngini = 0.375\nsamples = 4\nvalue = [3, 1]"] ;
643 -> 653 ;
654 [label="gini = 0.0\nsamples = 1\nvalue = [0, 1]"] ;
653 -> 654 ;
655 [label="gini = 0.0\nsamples = 3\nvalue = [3, 0]"] ;
653 -> 655 ;
656 [label="gini = 0.0\nsamples = 36\nvalue = [36, 0]"] ;
642 -> 656 ;
657 [label="X[6] <= 12.5\ngini = 0.4082\nsamples = 21\nvalue = [15, 6]"] ;
503 -> 657 ;
658 [label="X[2] <= 145566.0\ngini = 0.48\nsamples = 15\nvalue = [9, 6]"] ;
657 -> 658 ;
659 [label="X[2] <= 135697.5\ngini = 0.4444\nsamples = 6\nvalue = [2, 4]"] ;
658 -> 659 ;
660 [label="X[0] <= 27.5\ngini = 0.5\nsamples = 4\nvalue = [2, 2]"] ;
659 -> 660 ;
661 [label="gini = 0.0\nsamples = 2\nvalue = [2, 0]"] ;
660 -> 661 ;
662 [label="gini = 0.0\nsamples = 2\nvalue = [0, 2]"] ;
660 -> 662 ;
663 [label="gini = 0.0\nsamples = 2\nvalue = [0, 2]"] ;
659 -> 663 ;
664 [label="X[2] <= 271385.5\ngini = 0.3457\nsamples = 9\nvalue = [7, 2]"] ;
658 -> 664 ;
665 [label="gini = 0.0\nsamples = 6\nvalue = [6, 0]"] ;
664 -> 665 ;
666 [label="X[0] <= 26.5\ngini = 0.4444\nsamples = 3\nvalue = [1, 2]"] ;
664 -> 666 ;
667 [label="gini = 0.0\nsamples = 1\nvalue = [1, 0]"] ;
666 -> 667 ;
668 [label="gini = 0.0\nsamples = 2\nvalue = [0, 2]"] ;
666 -> 668 ;
669 [label="gini = 0.0\nsamples = 6\nvalue = [6, 0]"] ;
657 -> 669 ;
670 [label="X[2] <= 154768.5\ngini = 0.3388\nsamples = 310\nvalue = [243, 67]"] ;
502 -> 670 ;
671 [label="X[1] <= 1.5\ngini = 0.2337\nsamples = 111\nvalue = [96, 15]"] ;
670 -> 671 ;
672 [label="X[12] <= 46.0\ngini = 0.32\nsamples = 5\nvalue = [1, 4]"] ;
671 -> 672 ;
673 [label="gini = 0.0\nsamples = 4\nvalue = [0, 4]"] ;
672 -> 673 ;
674 [label="gini = 0.0\nsamples = 1\nvalue = [1, 0]"] ;
672 -> 674 ;
675 [label="X[6] <= 6.5\ngini = 0.186\nsamples = 106\nvalue = [95, 11]"] ;
671 -> 675 ;
676 [label="X[1] <= 4.5\ngini = 0.2571\nsamples = 66\nvalue = [56, 10]"] ;
675 -> 676 ;
677 [label="X[0] <= 25.5\ngini = 0.2975\nsamples = 55\nvalue = [45, 10]"] ;
676 -> 677 ;
678 [label="gini = 0.0\nsamples = 7\nvalue = [7, 0]"] ;
677 -> 678 ;
679 [label="X[10] <= 1203.5\ngini = 0.3299\nsamples = 48\nvalue = [38, 10]"] ;
677 -> 679 ;
680 [label="X[2] <= 53538.0\ngini = 0.3512\nsamples = 44\nvalue = [34, 10]"] ;
679 -> 680 ;
681 [label="X[2] <= 51864.5\ngini = 0.4688\nsamples = 8\nvalue = [5, 3]"] ;
680 -> 681 ;
682 [label="X[0] <= 28.5\ngini = 0.4082\nsamples = 7\nvalue = [5, 2]"] ;
681 -> 682 ;
683 [label="X[12] <= 42.5\ngini = 0.5\nsamples = 4\nvalue = [2, 2]"] ;
682 -> 683 ;
684 [label="gini = 0.0\nsamples = 1\nvalue = [0, 1]"] ;
683 -> 684 ;
685 [label="X[2] <= 38336.0\ngini = 0.4444\nsamples = 3\nvalue = [2, 1]"] ;
683 -> 685 ;
686 [label="gini = 0.0\nsamples = 2\nvalue = [2, 0]"] ;
685 -> 686 ;
687 [label="gini = 0.0\nsamples = 1\nvalue = [0, 1]"] ;
685 -> 687 ;
688 [label="gini = 0.0\nsamples = 3\nvalue = [3, 0]"] ;
682 -> 688 ;
689 [label="gini = 0.0\nsamples = 1\nvalue = [0, 1]"] ;
681 -> 689 ;
690 [label="X[12] <= 62.5\ngini = 0.3133\nsamples = 36\nvalue = [29, 7]"] ;
680 -> 690 ;
691 [label="X[2] <= 132506.0\ngini = 0.2841\nsamples = 35\nvalue = [29, 6]"] ;
690 -> 691 ;
692 [label="X[2] <= 108771.5\ngini = 0.2041\nsamples = 26\nvalue = [23, 3]"] ;
691 -> 692 ;
693 [label="X[2] <= 107825.0\ngini = 0.3047\nsamples = 16\nvalue = [13, 3]"] ;
692 -> 693 ;
694 [label="X[6] <= 3.5\ngini = 0.2311\nsamples = 15\nvalue = [13, 2]"] ;
693 -> 694 ;
695 [label="X[8] <= 1.5\ngini = 0.142\nsamples = 13\nvalue = [12, 1]"] ;
694 -> 695 ;
696 [label="X[8] <= 0.5\ngini = 0.4444\nsamples = 3\nvalue = [2, 1]"] ;
695 -> 696 ;
697 [label="gini = 0.0\nsamples = 2\nvalue = [2, 0]"] ;
696 -> 697 ;
698 [label="gini = 0.0\nsamples = 1\nvalue = [0, 1]"] ;
696 -> 698 ;
699 [label="gini = 0.0\nsamples = 10\nvalue = [10, 0]"] ;
695 -> 699 ;
700 [label="X[0] <= 27.0\ngini = 0.5\nsamples = 2\nvalue = [1, 1]"] ;
694 -> 700 ;
701 [label="gini = 0.0\nsamples = 1\nvalue = [1, 0]"] ;
700 -> 701 ;
702 [label="gini = 0.0\nsamples = 1\nvalue = [0, 1]"] ;
700 -> 702 ;
703 [label="gini = 0.0\nsamples = 1\nvalue = [0, 1]"] ;
693 -> 703 ;
704 [label="gini = 0.0\nsamples = 10\nvalue = [10, 0]"] ;
692 -> 704 ;
705 [label="X[2] <= 136713.5\ngini = 0.4444\nsamples = 9\nvalue = [6, 3]"] ;
691 -> 705 ;
706 [label="gini = 0.0\nsamples = 2\nvalue = [0, 2]"] ;
705 -> 706 ;
707 [label="X[11] <= 742.5\ngini = 0.2449\nsamples = 7\nvalue = [6, 1]"] ;
705 -> 707 ;
708 [label="gini = 0.0\nsamples = 5\nvalue = [5, 0]"] ;
707 -> 708 ;
709 [label="X[2] <= 148539.5\ngini = 0.5\nsamples = 2\nvalue = [1, 1]"] ;
707 -> 709 ;
710 [label="gini = 0.0\nsamples = 1\nvalue = [1, 0]"] ;
709 -> 710 ;
711 [label="gini = 0.0\nsamples = 1\nvalue = [0, 1]"] ;
709 -> 711 ;
712 [label="gini = 0.0\nsamples = 1\nvalue = [0, 1]"] ;
690 -> 712 ;
713 [label="gini = 0.0\nsamples = 4\nvalue = [4, 0]"] ;
679 -> 713 ;
714 [label="gini = 0.0\nsamples = 11\nvalue = [11, 0]"] ;
676 -> 714 ;
715 [label="X[1] <= 3.0\ngini = 0.0487\nsamples = 40\nvalue = [39, 1]"] ;
675 -> 715 ;
716 [label="X[2] <= 62375.0\ngini = 0.5\nsamples = 2\nvalue = [1, 1]"] ;
715 -> 716 ;
717 [label="gini = 0.0\nsamples = 1\nvalue = [1, 0]"] ;
716 -> 717 ;
718 [label="gini = 0.0\nsamples = 1\nvalue = [0, 1]"] ;
716 -> 718 ;
719 [label="gini = 0.0\nsamples = 38\nvalue = [38, 0]"] ;
715 -> 719 ;
720 [label="X[11] <= 952.0\ngini = 0.3861\nsamples = 199\nvalue = [147, 52]"] ;
670 -> 720 ;
721 [label="X[6] <= 12.5\ngini = 0.3788\nsamples = 197\nvalue = [147, 50]"] ;
720 -> 721 ;
722 [label="X[2] <= 156531.0\ngini = 0.356\nsamples = 177\nvalue = [136, 41]"] ;
721 -> 722 ;
723 [label="X[12] <= 45.0\ngini = 0.48\nsamples = 5\nvalue = [2, 3]"] ;
722 -> 723 ;
724 [label="gini = 0.0\nsamples = 2\nvalue = [2, 0]"] ;
723 -> 724 ;
725 [label="gini = 0.0\nsamples = 3\nvalue = [0, 3]"] ;
723 -> 725 ;
726 [label="X[12] <= 52.5\ngini = 0.3442\nsamples = 172\nvalue = [134, 38]"] ;
722 -> 726 ;
727 [label="X[2] <= 577805.5\ngini = 0.3716\nsamples = 150\nvalue = [113, 37]"] ;
726 -> 727 ;
728 [label="X[5] <= 1.5\ngini = 0.3665\nsamples = 149\nvalue = [113, 36]"] ;
727 -> 728 ;
729 [label="gini = 0.0\nsamples = 1\nvalue = [0, 1]"] ;
728 -> 729 ;
730 [label="X[8] <= 1.5\ngini = 0.3611\nsamples = 148\nvalue = [113, 35]"] ;
728 -> 730 ;
731 [label="X[2] <= 337024.0\ngini = 0.4444\nsamples = 3\nvalue = [1, 2]"] ;
730 -> 731 ;
732 [label="gini = 0.0\nsamples = 2\nvalue = [0, 2]"] ;
731 -> 732 ;
733 [label="gini = 0.0\nsamples = 1\nvalue = [1, 0]"] ;
731 -> 733 ;
734 [label="X[6] <= 4.5\ngini = 0.3516\nsamples = 145\nvalue = [112, 33]"] ;
730 -> 734 ;
735 [label="X[2] <= 249789.5\ngini = 0.424\nsamples = 59\nvalue = [41, 18]"] ;
734 -> 735 ;
736 [label="X[1] <= 6.5\ngini = 0.3343\nsamples = 33\nvalue = [26, 7]"] ;
735 -> 736 ;
737 [label="X[2] <= 177882.0\ngini = 0.3047\nsamples = 32\nvalue = [26, 6]"] ;
736 -> 737 ;
738 [label="gini = 0.0\nsamples = 1\nvalue = [0, 1]"] ;
737 -> 738 ;
739 [label="X[3] <= 11.5\ngini = 0.2706\nsamples = 31\nvalue = [26, 5]"] ;
737 -> 739 ;
740 [label="gini = 0.0\nsamples = 8\nvalue = [8, 0]"] ;
739 -> 740 ;
741 [label="X[2] <= 219247.0\ngini = 0.3403\nsamples = 23\nvalue = [18, 5]"] ;
739 -> 741 ;
742 [label="X[8] <= 3.0\ngini = 0.2188\nsamples = 16\nvalue = [14, 2]"] ;
741 -> 742 ;
743 [label="X[2] <= 196236.0\ngini = 0.5\nsamples = 2\nvalue = [1, 1]"] ;
742 -> 743 ;
744 [label="gini = 0.0\nsamples = 1\nvalue = [0, 1]"] ;
743 -> 744 ;
745 [label="gini = 0.0\nsamples = 1\nvalue = [1, 0]"] ;
743 -> 745 ;
746 [label="X[1] <= 5.0\ngini = 0.1327\nsamples = 14\nvalue = [13, 1]"] ;
742 -> 746 ;
747 [label="gini = 0.0\nsamples = 12\nvalue = [12, 0]"] ;
746 -> 747 ;
748 [label="X[6] <= 3.5\ngini = 0.5\nsamples = 2\nvalue = [1, 1]"] ;
746 -> 748 ;
749 [label="gini = 0.0\nsamples = 1\nvalue = [1, 0]"] ;
748 -> 749 ;
750 [label="gini = 0.0\nsamples = 1\nvalue = [0, 1]"] ;
748 -> 750 ;
751 [label="X[2] <= 224288.0\ngini = 0.4898\nsamples = 7\nvalue = [4, 3]"] ;
741 -> 751 ;
752 [label="X[0] <= 27.0\ngini = 0.375\nsamples = 4\nvalue = [1, 3]"] ;
751 -> 752 ;
753 [label="X[6] <= 2.0\ngini = 0.5\nsamples = 2\nvalue = [1, 1]"] ;
752 -> 753 ;
754 [label="gini = 0.0\nsamples = 1\nvalue = [1, 0]"] ;
753 -> 754 ;
755 [label="gini = 0.0\nsamples = 1\nvalue = [0, 1]"] ;
753 -> 755 ;
756 [label="gini = 0.0\nsamples = 2\nvalue = [0, 2]"] ;
752 -> 756 ;
757 [label="gini = 0.0\nsamples = 3\nvalue = [3, 0]"] ;
751 -> 757 ;
758 [label="gini = 0.0\nsamples = 1\nvalue = [0, 1]"] ;
736 -> 758 ;
759 [label="X[3] <= 11.5\ngini = 0.4882\nsamples = 26\nvalue = [15, 11]"] ;
735 -> 759 ;
760 [label="X[2] <= 257759.5\ngini = 0.4082\nsamples = 7\nvalue = [2, 5]"] ;
759 -> 760 ;
761 [label="gini = 0.0\nsamples = 1\nvalue = [1, 0]"] ;
760 -> 761 ;
762 [label="X[0] <= 28.0\ngini = 0.2778\nsamples = 6\nvalue = [1, 5]"] ;
760 -> 762 ;
763 [label="X[4] <= 11.5\ngini = 0.4444\nsamples = 3\nvalue = [1, 2]"] ;
762 -> 763 ;
764 [label="gini = 0.0\nsamples = 1\nvalue = [1, 0]"] ;
763 -> 764 ;
765 [label="gini = 0.0\nsamples = 2\nvalue = [0, 2]"] ;
763 -> 765 ;
766 [label="gini = 0.0\nsamples = 3\nvalue = [0, 3]"] ;
762 -> 766 ;
767 [label="X[12] <= 49.0\ngini = 0.4321\nsamples = 19\nvalue = [13, 6]"] ;
759 -> 767 ;
768 [label="X[6] <= 3.5\ngini = 0.3599\nsamples = 17\nvalue = [13, 4]"] ;
767 -> 768 ;
769 [label="X[2] <= 253551.0\ngini = 0.2449\nsamples = 14\nvalue = [12, 2]"] ;
768 -> 769 ;
770 [label="gini = 0.0\nsamples = 1\nvalue = [0, 1]"] ;
769 -> 770 ;
771 [label="X[2] <= 518575.0\ngini = 0.142\nsamples = 13\nvalue = [12, 1]"] ;
769 -> 771 ;
772 [label="gini = 0.0\nsamples = 11\nvalue = [11, 0]"] ;
771 -> 772 ;
773 [label="X[0] <= 28.5\ngini = 0.5\nsamples = 2\nvalue = [1, 1]"] ;
771 -> 773 ;
774 [label="gini = 0.0\nsamples = 1\nvalue = [0, 1]"] ;
773 -> 774 ;
775 [label="gini = 0.0\nsamples = 1\nvalue = [1, 0]"] ;
773 -> 775 ;
776 [label="X[2] <= 345411.0\ngini = 0.4444\nsamples = 3\nvalue = [1, 2]"] ;
768 -> 776 ;
777 [label="gini = 0.0\nsamples = 2\nvalue = [0, 2]"] ;
776 -> 777 ;
778 [label="gini = 0.0\nsamples = 1\nvalue = [1, 0]"] ;
776 -> 778 ;
779 [label="gini = 0.0\nsamples = 2\nvalue = [0, 2]"] ;
767 -> 779 ;
780 [label="X[8] <= 3.5\ngini = 0.288\nsamples = 86\nvalue = [71, 15]"] ;
734 -> 780 ;
781 [label="gini = 0.0\nsamples = 9\nvalue = [9, 0]"] ;
780 -> 781 ;
782 [label="X[3] <= 7.5\ngini = 0.3137\nsamples = 77\nvalue = [62, 15]"] ;
780 -> 782 ;
783 [label="X[2] <= 201577.5\ngini = 0.4688\nsamples = 8\nvalue = [5, 3]"] ;
782 -> 783 ;
784 [label="X[12] <= 47.5\ngini = 0.48\nsamples = 5\nvalue = [2, 3]"] ;
783 -> 784 ;
785 [label="gini = 0.0\nsamples = 2\nvalue = [0, 2]"] ;
784 -> 785 ;
786 [label="X[1] <= 5.0\ngini = 0.4444\nsamples = 3\nvalue = [2, 1]"] ;
784 -> 786 ;
787 [label="X[2] <= 165485.0\ngini = 0.5\nsamples = 2\nvalue = [1, 1]"] ;
786 -> 787 ;
788 [label="gini = 0.0\nsamples = 1\nvalue = [1, 0]"] ;
787 -> 788 ;
789 [label="gini = 0.0\nsamples = 1\nvalue = [0, 1]"] ;
787 -> 789 ;
790 [label="gini = 0.0\nsamples = 1\nvalue = [1, 0]"] ;
786 -> 790 ;
791 [label="gini = 0.0\nsamples = 3\nvalue = [3, 0]"] ;
783 -> 791 ;
792 [label="X[2] <= 191756.5\ngini = 0.2873\nsamples = 69\nvalue = [57, 12]"] ;
782 -> 792 ;
793 [label="gini = 0.0\nsamples = 14\nvalue = [14, 0]"] ;
792 -> 793 ;
794 [label="X[2] <= 197888.0\ngini = 0.3412\nsamples = 55\nvalue = [43, 12]"] ;
792 -> 794 ;
795 [label="gini = 0.0\nsamples = 2\nvalue = [0, 2]"] ;
794 -> 795 ;
796 [label="X[0] <= 26.5\ngini = 0.3062\nsamples = 53\nvalue = [43, 10]"] ;
794 -> 796 ;
797 [label="X[6] <= 6.5\ngini = 0.18\nsamples = 20\nvalue = [18, 2]"] ;
796 -> 797 ;
798 [label="gini = 0.0\nsamples = 1\nvalue = [0, 1]"] ;
797 -> 798 ;
799 [label="X[2] <= 222563.0\ngini = 0.0997\nsamples = 19\nvalue = [18, 1]"] ;
797 -> 799 ;
800 [label="X[2] <= 212454.5\ngini = 0.2778\nsamples = 6\nvalue = [5, 1]"] ;
799 -> 800 ;
801 [label="gini = 0.0\nsamples = 5\nvalue = [5, 0]"] ;
800 -> 801 ;
802 [label="gini = 0.0\nsamples = 1\nvalue = [0, 1]"] ;
800 -> 802 ;
803 [label="gini = 0.0\nsamples = 13\nvalue = [13, 0]"] ;
799 -> 803 ;
804 [label="X[10] <= 1551.5\ngini = 0.3673\nsamples = 33\nvalue = [25, 8]"] ;
796 -> 804 ;
805 [label="X[12] <= 42.5\ngini = 0.3418\nsamples = 32\nvalue = [25, 7]"] ;
804 -> 805 ;
806 [label="X[2] <= 389124.5\ngini = 0.3841\nsamples = 27\nvalue = [20, 7]"] ;
805 -> 806 ;
807 [label="X[2] <= 368139.0\ngini = 0.4234\nsamples = 23\nvalue = [16, 7]"] ;
806 -> 807 ;
808 [label="X[6] <= 6.5\ngini = 0.3628\nsamples = 21\nvalue = [16, 5]"] ;
807 -> 808 ;
809 [label="gini = 0.0\nsamples = 4\nvalue = [4, 0]"] ;
808 -> 809 ;
810 [label="X[0] <= 28.5\ngini = 0.4152\nsamples = 17\nvalue = [12, 5]"] ;
808 -> 810 ;
811 [label="X[2] <= 282862.0\ngini = 0.48\nsamples = 10\nvalue = [6, 4]"] ;
810 -> 811 ;
812 [label="X[12] <= 37.5\ngini = 0.375\nsamples = 8\nvalue = [6, 2]"] ;
811 -> 812 ;
813 [label="gini = 0.0\nsamples = 1\nvalue = [0, 1]"] ;
812 -> 813 ;
814 [label="X[2] <= 225814.5\ngini = 0.2449\nsamples = 7\nvalue = [6, 1]"] ;
812 -> 814 ;
815 [label="gini = 0.0\nsamples = 4\nvalue = [4, 0]"] ;
814 -> 815 ;
816 [label="X[2] <= 240819.0\ngini = 0.4444\nsamples = 3\nvalue = [2, 1]"] ;
814 -> 816 ;
817 [label="gini = 0.0\nsamples = 1\nvalue = [0, 1]"] ;
816 -> 817 ;
818 [label="gini = 0.0\nsamples = 2\nvalue = [2, 0]"] ;
816 -> 818 ;
819 [label="gini = 0.0\nsamples = 2\nvalue = [0, 2]"] ;
811 -> 819 ;
820 [label="X[2] <= 199504.0\ngini = 0.2449\nsamples = 7\nvalue = [6, 1]"] ;
810 -> 820 ;
821 [label="gini = 0.0\nsamples = 1\nvalue = [0, 1]"] ;
820 -> 821 ;
822 [label="gini = 0.0\nsamples = 6\nvalue = [6, 0]"] ;
820 -> 822 ;
823 [label="gini = 0.0\nsamples = 2\nvalue = [0, 2]"] ;
807 -> 823 ;
824 [label="gini = 0.0\nsamples = 4\nvalue = [4, 0]"] ;
806 -> 824 ;
825 [label="gini = 0.0\nsamples = 5\nvalue = [5, 0]"] ;
805 -> 825 ;
826 [label="gini = 0.0\nsamples = 1\nvalue = [0, 1]"] ;
804 -> 826 ;
827 [label="gini = 0.0\nsamples = 1\nvalue = [0, 1]"] ;
727 -> 827 ;
828 [label="X[0] <= 25.5\ngini = 0.0868\nsamples = 22\nvalue = [21, 1]"] ;
726 -> 828 ;
829 [label="gini = 0.0\nsamples = 1\nvalue = [0, 1]"] ;
828 -> 829 ;
830 [label="gini = 0.0\nsamples = 21\nvalue = [21, 0]"] ;
828 -> 830 ;
831 [label="X[2] <= 308065.0\ngini = 0.495\nsamples = 20\nvalue = [11, 9]"] ;
721 -> 831 ;
832 [label="X[6] <= 13.5\ngini = 0.4297\nsamples = 16\nvalue = [11, 5]"] ;
831 -> 832 ;
833 [label="X[2] <= 182812.0\ngini = 0.48\nsamples = 5\nvalue = [2, 3]"] ;
832 -> 833 ;
834 [label="gini = 0.0\nsamples = 2\nvalue = [0, 2]"] ;
833 -> 834 ;
835 [label="X[1] <= 2.5\ngini = 0.4444\nsamples = 3\nvalue = [2, 1]"] ;
833 -> 835 ;
836 [label="gini = 0.0\nsamples = 1\nvalue = [0, 1]"] ;
835 -> 836 ;
837 [label="gini = 0.0\nsamples = 2\nvalue = [2, 0]"] ;
835 -> 837 ;
838 [label="X[2] <= 194985.0\ngini = 0.2975\nsamples = 11\nvalue = [9, 2]"] ;
832 -> 838 ;
839 [label="X[2] <= 181911.0\ngini = 0.48\nsamples = 5\nvalue = [3, 2]"] ;
838 -> 839 ;
840 [label="gini = 0.0\nsamples = 3\nvalue = [3, 0]"] ;
839 -> 840 ;
841 [label="gini = 0.0\nsamples = 2\nvalue = [0, 2]"] ;
839 -> 841 ;
842 [label="gini = 0.0\nsamples = 6\nvalue = [6, 0]"] ;
838 -> 842 ;
843 [label="gini = 0.0\nsamples = 4\nvalue = [0, 4]"] ;
831 -> 843 ;
844 [label="gini = 0.0\nsamples = 2\nvalue = [0, 2]"] ;
720 -> 844 ;
845 [label="X[12] <= 54.5\ngini = 0.3739\nsamples = 1310\nvalue = [984, 326]"] ;
451 -> 845 ;
846 [label="X[4] <= 9.5\ngini = 0.3475\nsamples = 1099\nvalue = [853, 246]"] ;
845 -> 846 ;
847 [label="X[8] <= 3.5\ngini = 0.2878\nsamples = 614\nvalue = [507, 107]"] ;
846 -> 847 ;
848 [label="X[2] <= 22421.0\ngini = 0.1189\nsamples = 63\nvalue = [59, 4]"] ;
847 -> 848 ;
849 [label="gini = 0.0\nsamples = 1\nvalue = [0, 1]"] ;
848 -> 849 ;
850 [label="X[8] <= 1.5\ngini = 0.0921\nsamples = 62\nvalue = [59, 3]"] ;
848 -> 850 ;
851 [label="X[12] <= 44.0\ngini = 0.2907\nsamples = 17\nvalue = [14, 3]"] ;
850 -> 851 ;
852 [label="X[2] <= 103963.0\ngini = 0.2311\nsamples = 15\nvalue = [13, 2]"] ;
851 -> 852 ;
853 [label="X[0] <= 30.5\ngini = 0.375\nsamples = 8\nvalue = [6, 2]"] ;
852 -> 853 ;
854 [label="gini = 0.0\nsamples = 1\nvalue = [0, 1]"] ;
853 -> 854 ;
855 [label="X[6] <= 11.0\ngini = 0.2449\nsamples = 7\nvalue = [6, 1]"] ;
853 -> 855 ;
856 [label="gini = 0.0\nsamples = 5\nvalue = [5, 0]"] ;
855 -> 856 ;
857 [label="X[2] <= 45946.0\ngini = 0.5\nsamples = 2\nvalue = [1, 1]"] ;
855 -> 857 ;
858 [label="gini = 0.0\nsamples = 1\nvalue = [1, 0]"] ;
857 -> 858 ;
859 [label="gini = 0.0\nsamples = 1\nvalue = [0, 1]"] ;
857 -> 859 ;
860 [label="gini = 0.0\nsamples = 7\nvalue = [7, 0]"] ;
852 -> 860 ;
861 [label="X[2] <= 157819.0\ngini = 0.5\nsamples = 2\nvalue = [1, 1]"] ;
851 -> 861 ;
862 [label="gini = 0.0\nsamples = 1\nvalue = [1, 0]"] ;
861 -> 862 ;
863 [label="gini = 0.0\nsamples = 1\nvalue = [0, 1]"] ;
861 -> 863 ;
864 [label="gini = 0.0\nsamples = 45\nvalue = [45, 0]"] ;
850 -> 864 ;
865 [label="X[2] <= 88409.0\ngini = 0.304\nsamples = 551\nvalue = [448, 103]"] ;
847 -> 865 ;
866 [label="X[6] <= 9.0\ngini = 0.1544\nsamples = 83\nvalue = [76, 7]"] ;
865 -> 866 ;
867 [label="gini = 0.0\nsamples = 62\nvalue = [62, 0]"] ;
866 -> 867 ;
868 [label="X[2] <= 63826.0\ngini = 0.4444\nsamples = 21\nvalue = [14, 7]"] ;
866 -> 868 ;
869 [label="X[12] <= 51.0\ngini = 0.3457\nsamples = 18\nvalue = [14, 4]"] ;
868 -> 869 ;
870 [label="X[2] <= 26581.0\ngini = 0.2188\nsamples = 16\nvalue = [14, 2]"] ;
869 -> 870 ;
871 [label="gini = 0.0\nsamples = 1\nvalue = [0, 1]"] ;
870 -> 871 ;
872 [label="X[2] <= 31722.0\ngini = 0.1244\nsamples = 15\nvalue = [14, 1]"] ;
870 -> 872 ;
873 [label="X[2] <= 29162.0\ngini = 0.4444\nsamples = 3\nvalue = [2, 1]"] ;
872 -> 873 ;
874 [label="gini = 0.0\nsamples = 2\nvalue = [2, 0]"] ;
873 -> 874 ;
875 [label="gini = 0.0\nsamples = 1\nvalue = [0, 1]"] ;
873 -> 875 ;
876 [label="gini = 0.0\nsamples = 12\nvalue = [12, 0]"] ;
872 -> 876 ;
877 [label="gini = 0.0\nsamples = 2\nvalue = [0, 2]"] ;
869 -> 877 ;
878 [label="gini = 0.0\nsamples = 3\nvalue = [0, 3]"] ;
868 -> 878 ;
879 [label="X[2] <= 90326.5\ngini = 0.3261\nsamples = 468\nvalue = [372, 96]"] ;
865 -> 879 ;
880 [label="gini = 0.0\nsamples = 1\nvalue = [0, 1]"] ;
879 -> 880 ;
881 [label="X[1] <= 4.5\ngini = 0.3241\nsamples = 467\nvalue = [372, 95]"] ;
879 -> 881 ;
882 [label="X[10] <= 3120.0\ngini = 0.3057\nsamples = 393\nvalue = [319, 74]"] ;
881 -> 882 ;
883 [label="X[10] <= 2994.0\ngini = 0.3136\nsamples = 380\nvalue = [306, 74]"] ;
882 -> 883 ;
884 [label="X[0] <= 31.5\ngini = 0.3084\nsamples = 378\nvalue = [306, 72]"] ;
883 -> 884 ;
885 [label="X[1] <= 3.0\ngini = 0.3772\nsamples = 115\nvalue = [86, 29]"] ;
884 -> 885 ;
886 [label="X[2] <= 338622.5\ngini = 0.4628\nsamples = 11\nvalue = [4, 7]"] ;
885 -> 886 ;
887 [label="X[2] <= 200219.0\ngini = 0.3457\nsamples = 9\nvalue = [2, 7]"] ;
886 -> 887 ;
888 [label="X[1] <= 1.5\ngini = 0.4444\nsamples = 3\nvalue = [2, 1]"] ;
887 -> 888 ;
889 [label="gini = 0.0\nsamples = 1\nvalue = [0, 1]"] ;
888 -> 889 ;
890 [label="gini = 0.0\nsamples = 2\nvalue = [2, 0]"] ;
888 -> 890 ;
891 [label="gini = 0.0\nsamples = 6\nvalue = [0, 6]"] ;
887 -> 891 ;
892 [label="gini = 0.0\nsamples = 2\nvalue = [2, 0]"] ;
886 -> 892 ;
893 [label="X[0] <= 30.5\ngini = 0.3336\nsamples = 104\nvalue = [82, 22]"] ;
885 -> 893 ;
894 [label="X[2] <= 421388.0\ngini = 0.2293\nsamples = 53\nvalue = [46, 7]"] ;
893 -> 894 ;
895 [label="X[2] <= 210522.0\ngini = 0.2041\nsamples = 52\nvalue = [46, 6]"] ;
894 -> 895 ;
896 [label="X[12] <= 41.0\ngini = 0.32\nsamples = 30\nvalue = [24, 6]"] ;
895 -> 896 ;
897 [label="X[2] <= 126792.0\ngini = 0.4321\nsamples = 19\nvalue = [13, 6]"] ;
896 -> 897 ;
898 [label="gini = 0.0\nsamples = 5\nvalue = [5, 0]"] ;
897 -> 898 ;
899 [label="X[2] <= 145959.5\ngini = 0.4898\nsamples = 14\nvalue = [8, 6]"] ;
897 -> 899 ;
900 [label="gini = 0.0\nsamples = 1\nvalue = [0, 1]"] ;
899 -> 900 ;
901 [label="X[2] <= 160143.5\ngini = 0.4734\nsamples = 13\nvalue = [8, 5]"] ;
899 -> 901 ;
902 [label="gini = 0.0\nsamples = 2\nvalue = [2, 0]"] ;
901 -> 902 ;
903 [label="X[2] <= 166011.0\ngini = 0.4959\nsamples = 11\nvalue = [6, 5]"] ;
901 -> 903 ;
904 [label="gini = 0.0\nsamples = 2\nvalue = [0, 2]"] ;
903 -> 904 ;
905 [label="X[2] <= 176617.5\ngini = 0.4444\nsamples = 9\nvalue = [6, 3]"] ;
903 -> 905 ;
906 [label="gini = 0.0\nsamples = 3\nvalue = [3, 0]"] ;
905 -> 906 ;
907 [label="X[2] <= 183766.0\ngini = 0.5\nsamples = 6\nvalue = [3, 3]"] ;
905 -> 907 ;
908 [label="gini = 0.0\nsamples = 1\nvalue = [0, 1]"] ;
907 -> 908 ;
909 [label="X[2] <= 190369.5\ngini = 0.48\nsamples = 5\nvalue = [3, 2]"] ;
907 -> 909 ;
910 [label="gini = 0.0\nsamples = 1\nvalue = [1, 0]"] ;
909 -> 910 ;
911 [label="X[6] <= 10.5\ngini = 0.5\nsamples = 4\nvalue = [2, 2]"] ;
909 -> 911 ;
912 [label="X[2] <= 194034.5\ngini = 0.4444\nsamples = 3\nvalue = [1, 2]"] ;
911 -> 912 ;
913 [label="gini = 0.0\nsamples = 1\nvalue = [0, 1]"] ;
912 -> 913 ;
914 [label="X[2] <= 201804.5\ngini = 0.5\nsamples = 2\nvalue = [1, 1]"] ;
912 -> 914 ;
915 [label="gini = 0.0\nsamples = 1\nvalue = [1, 0]"] ;
914 -> 915 ;
916 [label="gini = 0.0\nsamples = 1\nvalue = [0, 1]"] ;
914 -> 916 ;
917 [label="gini = 0.0\nsamples = 1\nvalue = [1, 0]"] ;
911 -> 917 ;
918 [label="gini = 0.0\nsamples = 11\nvalue = [11, 0]"] ;
896 -> 918 ;
919 [label="gini = 0.0\nsamples = 22\nvalue = [22, 0]"] ;
895 -> 919 ;
920 [label="gini = 0.0\nsamples = 1\nvalue = [0, 1]"] ;
894 -> 920 ;
921 [label="X[2] <= 351806.0\ngini = 0.4152\nsamples = 51\nvalue = [36, 15]"] ;
893 -> 921 ;
922 [label="X[2] <= 313453.0\ngini = 0.4346\nsamples = 47\nvalue = [32, 15]"] ;
921 -> 922 ;
923 [label="X[2] <= 137047.5\ngini = 0.3967\nsamples = 44\nvalue = [32, 12]"] ;
922 -> 923 ;
924 [label="X[2] <= 115089.5\ngini = 0.2604\nsamples = 13\nvalue = [11, 2]"] ;
923 -> 924 ;
925 [label="X[12] <= 42.5\ngini = 0.48\nsamples = 5\nvalue = [3, 2]"] ;
924 -> 925 ;
926 [label="gini = 0.0\nsamples = 2\nvalue = [0, 2]"] ;
925 -> 926 ;
927 [label="gini = 0.0\nsamples = 3\nvalue = [3, 0]"] ;
925 -> 927 ;
928 [label="gini = 0.0\nsamples = 8\nvalue = [8, 0]"] ;
924 -> 928 ;
929 [label="X[2] <= 148110.0\ngini = 0.437\nsamples = 31\nvalue = [21, 10]"] ;
923 -> 929 ;
930 [label="gini = 0.0\nsamples = 2\nvalue = [0, 2]"] ;
929 -> 930 ;
931 [label="X[12] <= 39.0\ngini = 0.3995\nsamples = 29\nvalue = [21, 8]"] ;
929 -> 931 ;
932 [label="gini = 0.0\nsamples = 2\nvalue = [2, 0]"] ;
931 -> 932 ;
933 [label="X[2] <= 226100.0\ngini = 0.417\nsamples = 27\nvalue = [19, 8]"] ;
931 -> 933 ;
934 [label="X[2] <= 216378.5\ngini = 0.455\nsamples = 20\nvalue = [13, 7]"] ;
933 -> 934 ;
935 [label="X[12] <= 48.5\ngini = 0.375\nsamples = 16\nvalue = [12, 4]"] ;
934 -> 935 ;
936 [label="X[2] <= 155495.0\ngini = 0.2778\nsamples = 12\nvalue = [10, 2]"] ;
935 -> 936 ;
937 [label="X[2] <= 153191.5\ngini = 0.5\nsamples = 2\nvalue = [1, 1]"] ;
936 -> 937 ;
938 [label="gini = 0.0\nsamples = 1\nvalue = [1, 0]"] ;
937 -> 938 ;
939 [label="gini = 0.0\nsamples = 1\nvalue = [0, 1]"] ;
937 -> 939 ;
940 [label="X[6] <= 6.5\ngini = 0.18\nsamples = 10\nvalue = [9, 1]"] ;
936 -> 940 ;
941 [label="gini = 0.0\nsamples = 6\nvalue = [6, 0]"] ;
940 -> 941 ;
942 [label="X[2] <= 202589.5\ngini = 0.375\nsamples = 4\nvalue = [3, 1]"] ;
940 -> 942 ;
943 [label="gini = 0.0\nsamples = 3\nvalue = [3, 0]"] ;
942 -> 943 ;
944 [label="gini = 0.0\nsamples = 1\nvalue = [0, 1]"] ;
942 -> 944 ;
945 [label="X[6] <= 13.0\ngini = 0.5\nsamples = 4\nvalue = [2, 2]"] ;
935 -> 945 ;
946 [label="gini = 0.0\nsamples = 2\nvalue = [0, 2]"] ;
945 -> 946 ;
947 [label="gini = 0.0\nsamples = 2\nvalue = [2, 0]"] ;
945 -> 947 ;
948 [label="X[2] <= 221360.5\ngini = 0.375\nsamples = 4\nvalue = [1, 3]"] ;
934 -> 948 ;
949 [label="gini = 0.0\nsamples = 2\nvalue = [0, 2]"] ;
948 -> 949 ;
950 [label="X[6] <= 6.0\ngini = 0.5\nsamples = 2\nvalue = [1, 1]"] ;
948 -> 950 ;
951 [label="gini = 0.0\nsamples = 1\nvalue = [0, 1]"] ;
950 -> 951 ;
952 [label="gini = 0.0\nsamples = 1\nvalue = [1, 0]"] ;
950 -> 952 ;
953 [label="X[2] <= 251433.5\ngini = 0.2449\nsamples = 7\nvalue = [6, 1]"] ;
933 -> 953 ;
954 [label="gini = 0.0\nsamples = 4\nvalue = [4, 0]"] ;
953 -> 954 ;
955 [label="X[2] <= 275563.5\ngini = 0.4444\nsamples = 3\nvalue = [2, 1]"] ;
953 -> 955 ;
956 [label="gini = 0.0\nsamples = 1\nvalue = [0, 1]"] ;
955 -> 956 ;
957 [label="gini = 0.0\nsamples = 2\nvalue = [2, 0]"] ;
955 -> 957 ;
958 [label="gini = 0.0\nsamples = 3\nvalue = [0, 3]"] ;
922 -> 958 ;
959 [label="gini = 0.0\nsamples = 4\nvalue = [4, 0]"] ;
921 -> 959 ;
960 [label="X[2] <= 99227.5\ngini = 0.2735\nsamples = 263\nvalue = [220, 43]"] ;
884 -> 960 ;
961 [label="X[2] <= 94138.0\ngini = 0.5\nsamples = 6\nvalue = [3, 3]"] ;
960 -> 961 ;
962 [label="gini = 0.0\nsamples = 2\nvalue = [2, 0]"] ;
961 -> 962 ;
963 [label="X[11] <= 836.0\ngini = 0.375\nsamples = 4\nvalue = [1, 3]"] ;
961 -> 963 ;
964 [label="gini = 0.0\nsamples = 3\nvalue = [0, 3]"] ;
963 -> 964 ;
965 [label="gini = 0.0\nsamples = 1\nvalue = [1, 0]"] ;
963 -> 965 ;
966 [label="X[6] <= 12.5\ngini = 0.2628\nsamples = 257\nvalue = [217, 40]"] ;
960 -> 966 ;
967 [label="X[12] <= 33.5\ngini = 0.2848\nsamples = 221\nvalue = [183, 38]"] ;
966 -> 967 ;
968 [label="gini = 0.0\nsamples = 11\nvalue = [11, 0]"] ;
967 -> 968 ;
969 [label="X[0] <= 32.5\ngini = 0.2964\nsamples = 210\nvalue = [172, 38]"] ;
967 -> 969 ;
970 [label="X[2] <= 229148.0\ngini = 0.1975\nsamples = 54\nvalue = [48, 6]"] ;
969 -> 970 ;
971 [label="X[2] <= 163140.5\ngini = 0.142\nsamples = 39\nvalue = [36, 3]"] ;
970 -> 971 ;
972 [label="X[12] <= 49.0\ngini = 0.2907\nsamples = 17\nvalue = [14, 3]"] ;
971 -> 972 ;
973 [label="X[6] <= 8.0\ngini = 0.2188\nsamples = 16\nvalue = [14, 2]"] ;
972 -> 973 ;
974 [label="X[6] <= 5.0\ngini = 0.2975\nsamples = 11\nvalue = [9, 2]"] ;
973 -> 974 ;
975 [label="X[1] <= 3.0\ngini = 0.1975\nsamples = 9\nvalue = [8, 1]"] ;
974 -> 975 ;
976 [label="X[2] <= 142769.0\ngini = 0.5\nsamples = 2\nvalue = [1, 1]"] ;
975 -> 976 ;
977 [label="gini = 0.0\nsamples = 1\nvalue = [0, 1]"] ;
976 -> 977 ;
978 [label="gini = 0.0\nsamples = 1\nvalue = [1, 0]"] ;
976 -> 978 ;
979 [label="gini = 0.0\nsamples = 7\nvalue = [7, 0]"] ;
975 -> 979 ;
980 [label="X[2] <= 134508.0\ngini = 0.5\nsamples = 2\nvalue = [1, 1]"] ;
974 -> 980 ;
981 [label="gini = 0.0\nsamples = 1\nvalue = [1, 0]"] ;
980 -> 981 ;
982 [label="gini = 0.0\nsamples = 1\nvalue = [0, 1]"] ;
980 -> 982 ;
983 [label="gini = 0.0\nsamples = 5\nvalue = [5, 0]"] ;
973 -> 983 ;
984 [label="gini = 0.0\nsamples = 1\nvalue = [0, 1]"] ;
972 -> 984 ;
985 [label="gini = 0.0\nsamples = 22\nvalue = [22, 0]"] ;
971 -> 985 ;
986 [label="X[2] <= 259257.5\ngini = 0.32\nsamples = 15\nvalue = [12, 3]"] ;
970 -> 986 ;
987 [label="X[2] <= 235178.5\ngini = 0.4444\nsamples = 3\nvalue = [1, 2]"] ;
986 -> 987 ;
988 [label="gini = 0.0\nsamples = 1\nvalue = [0, 1]"] ;
987 -> 988 ;
989 [label="X[2] <= 247653.0\ngini = 0.5\nsamples = 2\nvalue = [1, 1]"] ;
987 -> 989 ;
990 [label="gini = 0.0\nsamples = 1\nvalue = [1, 0]"] ;
989 -> 990 ;
991 [label="gini = 0.0\nsamples = 1\nvalue = [0, 1]"] ;
989 -> 991 ;
992 [label="X[6] <= 5.0\ngini = 0.1528\nsamples = 12\nvalue = [11, 1]"] ;
986 -> 992 ;
993 [label="gini = 0.0\nsamples = 8\nvalue = [8, 0]"] ;
992 -> 993 ;
994 [label="X[2] <= 324035.5\ngini = 0.375\nsamples = 4\nvalue = [3, 1]"] ;
992 -> 994 ;
995 [label="gini = 0.0\nsamples = 3\nvalue = [3, 0]"] ;
994 -> 995 ;
996 [label="gini = 0.0\nsamples = 1\nvalue = [0, 1]"] ;
994 -> 996 ;
997 [label="X[2] <= 107267.5\ngini = 0.3261\nsamples = 156\nvalue = [124, 32]"] ;
969 -> 997 ;
998 [label="gini = 0.0\nsamples = 6\nvalue = [6, 0]"] ;
997 -> 998 ;
999 [label="X[2] <= 109134.5\ngini = 0.3356\nsamples = 150\nvalue = [118, 32]"] ;
997 -> 999 ;
1000 [label="gini = 0.0\nsamples = 1\nvalue = [0, 1]"] ;
999 -> 1000 ;
1001 [label="X[12] <= 42.5\ngini = 0.3295\nsamples = 149\nvalue = [118, 31]"] ;
999 -> 1001 ;
1002 [label="X[2] <= 183255.0\ngini = 0.2954\nsamples = 111\nvalue = [91, 20]"] ;
1001 -> 1002 ;
1003 [label="X[6] <= 7.5\ngini = 0.1687\nsamples = 43\nvalue = [39, 4]"] ;
1002 -> 1003 ;
1004 [label="X[2] <= 123661.0\ngini = 0.1049\nsamples = 36\nvalue = [34, 2]"] ;
1003 -> 1004 ;
1005 [label="X[2] <= 112576.5\ngini = 0.48\nsamples = 5\nvalue = [3, 2]"] ;
1004 -> 1005 ;
1006 [label="gini = 0.0\nsamples = 3\nvalue = [3, 0]"] ;
1005 -> 1006 ;
1007 [label="gini = 0.0\nsamples = 2\nvalue = [0, 2]"] ;
1005 -> 1007 ;
1008 [label="gini = 0.0\nsamples = 31\nvalue = [31, 0]"] ;
1004 -> 1008 ;
1009 [label="X[6] <= 9.5\ngini = 0.4082\nsamples = 7\nvalue = [5, 2]"] ;
1003 -> 1009 ;
1010 [label="gini = 0.0\nsamples = 1\nvalue = [0, 1]"] ;
1009 -> 1010 ;
1011 [label="X[2] <= 152600.5\ngini = 0.2778\nsamples = 6\nvalue = [5, 1]"] ;
1009 -> 1011 ;
1012 [label="X[2] <= 132607.0\ngini = 0.4444\nsamples = 3\nvalue = [2, 1]"] ;
1011 -> 1012 ;
1013 [label="gini = 0.0\nsamples = 2\nvalue = [2, 0]"] ;
1012 -> 1013 ;
1014 [label="gini = 0.0\nsamples = 1\nvalue = [0, 1]"] ;
1012 -> 1014 ;
1015 [label="gini = 0.0\nsamples = 3\nvalue = [3, 0]"] ;
1011 -> 1015 ;
1016 [label="X[2] <= 186412.0\ngini = 0.3599\nsamples = 68\nvalue = [52, 16]"] ;
1002 -> 1016 ;
1017 [label="X[2] <= 184339.5\ngini = 0.375\nsamples = 4\nvalue = [1, 3]"] ;
1016 -> 1017 ;
1018 [label="X[6] <= 5.0\ngini = 0.5\nsamples = 2\nvalue = [1, 1]"] ;
1017 -> 1018 ;
1019 [label="gini = 0.0\nsamples = 1\nvalue = [1, 0]"] ;
1018 -> 1019 ;
1020 [label="gini = 0.0\nsamples = 1\nvalue = [0, 1]"] ;
1018 -> 1020 ;
1021 [label="gini = 0.0\nsamples = 2\nvalue = [0, 2]"] ;
1017 -> 1021 ;
1022 [label="X[2] <= 196222.0\ngini = 0.3237\nsamples = 64\nvalue = [51, 13]"] ;
1016 -> 1022 ;
1023 [label="gini = 0.0\nsamples = 11\nvalue = [11, 0]"] ;
1022 -> 1023 ;
1024 [label="X[2] <= 196815.5\ngini = 0.3702\nsamples = 53\nvalue = [40, 13]"] ;
1022 -> 1024 ;
1025 [label="gini = 0.0\nsamples = 1\nvalue = [0, 1]"] ;
1024 -> 1025 ;
1026 [label="X[2] <= 319698.5\ngini = 0.355\nsamples = 52\nvalue = [40, 12]"] ;
1024 -> 1026 ;
1027 [label="X[12] <= 37.5\ngini = 0.4114\nsamples = 38\nvalue = [27, 11]"] ;
1026 -> 1027 ;
1028 [label="gini = 0.0\nsamples = 1\nvalue = [0, 1]"] ;
1027 -> 1028 ;
1029 [label="X[2] <= 210285.5\ngini = 0.3944\nsamples = 37\nvalue = [27, 10]"] ;
1027 -> 1029 ;
1030 [label="gini = 0.0\nsamples = 8\nvalue = [8, 0]"] ;
1029 -> 1030 ;
1031 [label="X[2] <= 214305.0\ngini = 0.4518\nsamples = 29\nvalue = [19, 10]"] ;
1029 -> 1031 ;
1032 [label="gini = 0.0\nsamples = 1\nvalue = [0, 1]"] ;
1031 -> 1032 ;
1033 [label="X[2] <= 312386.5\ngini = 0.4362\nsamples = 28\nvalue = [19, 9]"] ;
1031 -> 1033 ;
1034 [label="X[6] <= 3.5\ngini = 0.417\nsamples = 27\nvalue = [19, 8]"] ;
1033 -> 1034 ;
1035 [label="X[0] <= 33.5\ngini = 0.48\nsamples = 15\nvalue = [9, 6]"] ;
1034 -> 1035 ;
1036 [label="X[2] <= 246993.0\ngini = 0.2778\nsamples = 6\nvalue = [5, 1]"] ;
1035 -> 1036 ;
1037 [label="X[2] <= 228330.0\ngini = 0.4444\nsamples = 3\nvalue = [2, 1]"] ;
1036 -> 1037 ;
1038 [label="gini = 0.0\nsamples = 2\nvalue = [2, 0]"] ;
1037 -> 1038 ;
1039 [label="gini = 0.0\nsamples = 1\nvalue = [0, 1]"] ;
1037 -> 1039 ;
1040 [label="gini = 0.0\nsamples = 3\nvalue = [3, 0]"] ;
1036 -> 1040 ;
1041 [label="X[2] <= 254729.0\ngini = 0.4938\nsamples = 9\nvalue = [4, 5]"] ;
1035 -> 1041 ;
1042 [label="X[2] <= 218653.0\ngini = 0.4444\nsamples = 6\nvalue = [4, 2]"] ;
1041 -> 1042 ;
1043 [label="gini = 0.0\nsamples = 1\nvalue = [0, 1]"] ;
1042 -> 1043 ;
1044 [label="X[2] <= 232433.0\ngini = 0.32\nsamples = 5\nvalue = [4, 1]"] ;
1042 -> 1044 ;
1045 [label="gini = 0.0\nsamples = 2\nvalue = [2, 0]"] ;
1044 -> 1045 ;
1046 [label="X[2] <= 243544.0\ngini = 0.4444\nsamples = 3\nvalue = [2, 1]"] ;
1044 -> 1046 ;
1047 [label="gini = 0.0\nsamples = 1\nvalue = [0, 1]"] ;
1046 -> 1047 ;
1048 [label="gini = 0.0\nsamples = 2\nvalue = [2, 0]"] ;
1046 -> 1048 ;
1049 [label="gini = 0.0\nsamples = 3\nvalue = [0, 3]"] ;
1041 -> 1049 ;
1050 [label="X[2] <= 229061.0\ngini = 0.2778\nsamples = 12\nvalue = [10, 2]"] ;
1034 -> 1050 ;
1051 [label="X[0] <= 33.5\ngini = 0.5\nsamples = 2\nvalue = [1, 1]"] ;
1050 -> 1051 ;
1052 [label="gini = 0.0\nsamples = 1\nvalue = [1, 0]"] ;
1051 -> 1052 ;
1053 [label="gini = 0.0\nsamples = 1\nvalue = [0, 1]"] ;
1051 -> 1053 ;
1054 [label="X[2] <= 263034.5\ngini = 0.18\nsamples = 10\nvalue = [9, 1]"] ;
1050 -> 1054 ;
1055 [label="gini = 0.0\nsamples = 5\nvalue = [5, 0]"] ;
1054 -> 1055 ;
1056 [label="X[2] <= 283256.5\ngini = 0.32\nsamples = 5\nvalue = [4, 1]"] ;
1054 -> 1056 ;
1057 [label="gini = 0.0\nsamples = 1\nvalue = [0, 1]"] ;
1056 -> 1057 ;
1058 [label="gini = 0.0\nsamples = 4\nvalue = [4, 0]"] ;
1056 -> 1058 ;
1059 [label="gini = 0.0\nsamples = 1\nvalue = [0, 1]"] ;
1033 -> 1059 ;
1060 [label="X[2] <= 380475.5\ngini = 0.1327\nsamples = 14\nvalue = [13, 1]"] ;
1026 -> 1060 ;
1061 [label="gini = 0.0\nsamples = 8\nvalue = [8, 0]"] ;
1060 -> 1061 ;
1062 [label="X[2] <= 401935.5\ngini = 0.2778\nsamples = 6\nvalue = [5, 1]"] ;
1060 -> 1062 ;
1063 [label="gini = 0.0\nsamples = 1\nvalue = [0, 1]"] ;
1062 -> 1063 ;
1064 [label="gini = 0.0\nsamples = 5\nvalue = [5, 0]"] ;
1062 -> 1064 ;
1065 [label="X[6] <= 2.0\ngini = 0.4114\nsamples = 38\nvalue = [27, 11]"] ;
1001 -> 1065 ;
1066 [label="X[2] <= 206037.5\ngini = 0.375\nsamples = 4\nvalue = [1, 3]"] ;
1065 -> 1066 ;
1067 [label="gini = 0.0\nsamples = 3\nvalue = [0, 3]"] ;
1066 -> 1067 ;
1068 [label="gini = 0.0\nsamples = 1\nvalue = [1, 0]"] ;
1066 -> 1068 ;
1069 [label="X[12] <= 44.5\ngini = 0.3599\nsamples = 34\nvalue = [26, 8]"] ;
1065 -> 1069 ;
1070 [label="X[0] <= 34.5\ngini = 0.5\nsamples = 6\nvalue = [3, 3]"] ;
1069 -> 1070 ;
1071 [label="X[2] <= 120401.0\ngini = 0.375\nsamples = 4\nvalue = [1, 3]"] ;
1070 -> 1071 ;
1072 [label="gini = 0.0\nsamples = 1\nvalue = [1, 0]"] ;
1071 -> 1072 ;
1073 [label="gini = 0.0\nsamples = 3\nvalue = [0, 3]"] ;
1071 -> 1073 ;
1074 [label="gini = 0.0\nsamples = 2\nvalue = [2, 0]"] ;
1070 -> 1074 ;
1075 [label="X[2] <= 197220.0\ngini = 0.2934\nsamples = 28\nvalue = [23, 5]"] ;
1069 -> 1075 ;
1076 [label="X[12] <= 46.5\ngini = 0.1244\nsamples = 15\nvalue = [14, 1]"] ;
1075 -> 1076 ;
1077 [label="X[6] <= 7.5\ngini = 0.32\nsamples = 5\nvalue = [4, 1]"] ;
1076 -> 1077 ;
1078 [label="gini = 0.0\nsamples = 2\nvalue = [2, 0]"] ;
1077 -> 1078 ;
1079 [label="X[2] <= 137865.0\ngini = 0.4444\nsamples = 3\nvalue = [2, 1]"] ;
1077 -> 1079 ;
1080 [label="gini = 0.0\nsamples = 1\nvalue = [1, 0]"] ;
1079 -> 1080 ;
1081 [label="X[2] <= 166282.5\ngini = 0.5\nsamples = 2\nvalue = [1, 1]"] ;
1079 -> 1081 ;
1082 [label="gini = 0.0\nsamples = 1\nvalue = [0, 1]"] ;
1081 -> 1082 ;
1083 [label="gini = 0.0\nsamples = 1\nvalue = [1, 0]"] ;
1081 -> 1083 ;
1084 [label="gini = 0.0\nsamples = 10\nvalue = [10, 0]"] ;
1076 -> 1084 ;
1085 [label="X[0] <= 33.5\ngini = 0.426\nsamples = 13\nvalue = [9, 4]"] ;
1075 -> 1085 ;
1086 [label="X[12] <= 46.5\ngini = 0.48\nsamples = 5\nvalue = [2, 3]"] ;
1085 -> 1086 ;
1087 [label="gini = 0.0\nsamples = 1\nvalue = [0, 1]"] ;
1086 -> 1087 ;
1088 [label="X[6] <= 3.5\ngini = 0.5\nsamples = 4\nvalue = [2, 2]"] ;
1086 -> 1088 ;
1089 [label="gini = 0.0\nsamples = 1\nvalue = [0, 1]"] ;
1088 -> 1089 ;
1090 [label="X[2] <= 368582.5\ngini = 0.4444\nsamples = 3\nvalue = [2, 1]"] ;
1088 -> 1090 ;
1091 [label="gini = 0.0\nsamples = 2\nvalue = [2, 0]"] ;
1090 -> 1091 ;
1092 [label="gini = 0.0\nsamples = 1\nvalue = [0, 1]"] ;
1090 -> 1092 ;
1093 [label="X[2] <= 205242.0\ngini = 0.2188\nsamples = 8\nvalue = [7, 1]"] ;
1085 -> 1093 ;
1094 [label="gini = 0.0\nsamples = 1\nvalue = [0, 1]"] ;
1093 -> 1094 ;
1095 [label="gini = 0.0\nsamples = 7\nvalue = [7, 0]"] ;
1093 -> 1095 ;
1096 [label="X[12] <= 25.0\ngini = 0.1049\nsamples = 36\nvalue = [34, 2]"] ;
966 -> 1096 ;
1097 [label="X[0] <= 32.5\ngini = 0.5\nsamples = 2\nvalue = [1, 1]"] ;
1096 -> 1097 ;
1098 [label="gini = 0.0\nsamples = 1\nvalue = [0, 1]"] ;
1097 -> 1098 ;
1099 [label="gini = 0.0\nsamples = 1\nvalue = [1, 0]"] ;
1097 -> 1099 ;
1100 [label="X[12] <= 48.0\ngini = 0.0571\nsamples = 34\nvalue = [33, 1]"] ;
1096 -> 1100 ;
1101 [label="gini = 0.0\nsamples = 29\nvalue = [29, 0]"] ;
1100 -> 1101 ;
1102 [label="X[0] <= 33.0\ngini = 0.32\nsamples = 5\nvalue = [4, 1]"] ;
1100 -> 1102 ;
1103 [label="X[2] <= 135368.5\ngini = 0.5\nsamples = 2\nvalue = [1, 1]"] ;
1102 -> 1103 ;
1104 [label="gini = 0.0\nsamples = 1\nvalue = [1, 0]"] ;
1103 -> 1104 ;
1105 [label="gini = 0.0\nsamples = 1\nvalue = [0, 1]"] ;
1103 -> 1105 ;
1106 [label="gini = 0.0\nsamples = 3\nvalue = [3, 0]"] ;
1102 -> 1106 ;
1107 [label="gini = 0.0\nsamples = 2\nvalue = [0, 2]"] ;
883 -> 1107 ;
1108 [label="gini = 0.0\nsamples = 13\nvalue = [13, 0]"] ;
882 -> 1108 ;
1109 [label="X[1] <= 5.5\ngini = 0.4065\nsamples = 74\nvalue = [53, 21]"] ;
881 -> 1109 ;
1110 [label="X[2] <= 207138.5\ngini = 0.497\nsamples = 13\nvalue = [6, 7]"] ;
1109 -> 1110 ;
1111 [label="X[12] <= 42.5\ngini = 0.4444\nsamples = 9\nvalue = [6, 3]"] ;
1110 -> 1111 ;
1112 [label="gini = 0.0\nsamples = 2\nvalue = [0, 2]"] ;
1111 -> 1112 ;
1113 [label="X[0] <= 30.5\ngini = 0.2449\nsamples = 7\nvalue = [6, 1]"] ;
1111 -> 1113 ;
1114 [label="gini = 0.0\nsamples = 1\nvalue = [0, 1]"] ;
1113 -> 1114 ;
1115 [label="gini = 0.0\nsamples = 6\nvalue = [6, 0]"] ;
1113 -> 1115 ;
1116 [label="gini = 0.0\nsamples = 4\nvalue = [0, 4]"] ;
1110 -> 1116 ;
1117 [label="X[2] <= 213099.5\ngini = 0.3537\nsamples = 61\nvalue = [47, 14]"] ;
1109 -> 1117 ;
1118 [label="X[2] <= 177079.5\ngini = 0.4274\nsamples = 42\nvalue = [29, 13]"] ;
1117 -> 1118 ;
1119 [label="X[6] <= 12.5\ngini = 0.3367\nsamples = 28\nvalue = [22, 6]"] ;
1118 -> 1119 ;
1120 [label="X[2] <= 115615.0\ngini = 0.2688\nsamples = 25\nvalue = [21, 4]"] ;
1119 -> 1120 ;
1121 [label="X[2] <= 113415.0\ngini = 0.4688\nsamples = 8\nvalue = [5, 3]"] ;
1120 -> 1121 ;
1122 [label="X[6] <= 3.5\ngini = 0.4082\nsamples = 7\nvalue = [5, 2]"] ;
1121 -> 1122 ;
1123 [label="X[2] <= 111776.0\ngini = 0.4444\nsamples = 3\nvalue = [1, 2]"] ;
1122 -> 1123 ;
1124 [label="gini = 0.0\nsamples = 2\nvalue = [0, 2]"] ;
1123 -> 1124 ;
1125 [label="gini = 0.0\nsamples = 1\nvalue = [1, 0]"] ;
1123 -> 1125 ;
1126 [label="gini = 0.0\nsamples = 4\nvalue = [4, 0]"] ;
1122 -> 1126 ;
1127 [label="gini = 0.0\nsamples = 1\nvalue = [0, 1]"] ;
1121 -> 1127 ;
1128 [label="X[0] <= 30.5\ngini = 0.1107\nsamples = 17\nvalue = [16, 1]"] ;
1120 -> 1128 ;
1129 [label="X[12] <= 32.5\ngini = 0.5\nsamples = 2\nvalue = [1, 1]"] ;
1128 -> 1129 ;
1130 [label="gini = 0.0\nsamples = 1\nvalue = [1, 0]"] ;
1129 -> 1130 ;
1131 [label="gini = 0.0\nsamples = 1\nvalue = [0, 1]"] ;
1129 -> 1131 ;
1132 [label="gini = 0.0\nsamples = 15\nvalue = [15, 0]"] ;
1128 -> 1132 ;
1133 [label="X[2] <= 113574.5\ngini = 0.4444\nsamples = 3\nvalue = [1, 2]"] ;
1119 -> 1133 ;
1134 [label="gini = 0.0\nsamples = 1\nvalue = [1, 0]"] ;
1133 -> 1134 ;
1135 [label="gini = 0.0\nsamples = 2\nvalue = [0, 2]"] ;
1133 -> 1135 ;
1136 [label="X[2] <= 187251.0\ngini = 0.5\nsamples = 14\nvalue = [7, 7]"] ;
1118 -> 1136 ;
1137 [label="gini = 0.0\nsamples = 3\nvalue = [0, 3]"] ;
1136 -> 1137 ;
1138 [label="X[0] <= 31.5\ngini = 0.4628\nsamples = 11\nvalue = [7, 4]"] ;
1136 -> 1138 ;
1139 [label="gini = 0.0\nsamples = 2\nvalue = [0, 2]"] ;
1138 -> 1139 ;
1140 [label="X[6] <= 3.5\ngini = 0.3457\nsamples = 9\nvalue = [7, 2]"] ;
1138 -> 1140 ;
1141 [label="X[1] <= 6.5\ngini = 0.4444\nsamples = 6\nvalue = [4, 2]"] ;
1140 -> 1141 ;
1142 [label="X[12] <= 42.0\ngini = 0.4444\nsamples = 3\nvalue = [1, 2]"] ;
1141 -> 1142 ;
1143 [label="gini = 0.0\nsamples = 2\nvalue = [0, 2]"] ;
1142 -> 1143 ;
1144 [label="gini = 0.0\nsamples = 1\nvalue = [1, 0]"] ;
1142 -> 1144 ;
1145 [label="gini = 0.0\nsamples = 3\nvalue = [3, 0]"] ;
1141 -> 1145 ;
1146 [label="gini = 0.0\nsamples = 3\nvalue = [3, 0]"] ;
1140 -> 1146 ;
1147 [label="X[2] <= 330140.5\ngini = 0.0997\nsamples = 19\nvalue = [18, 1]"] ;
1117 -> 1147 ;
1148 [label="gini = 0.0\nsamples = 15\nvalue = [15, 0]"] ;
1147 -> 1148 ;
1149 [label="X[2] <= 346938.0\ngini = 0.375\nsamples = 4\nvalue = [3, 1]"] ;
1147 -> 1149 ;
1150 [label="gini = 0.0\nsamples = 1\nvalue = [0, 1]"] ;
1149 -> 1150 ;
1151 [label="gini = 0.0\nsamples = 3\nvalue = [3, 0]"] ;
1149 -> 1151 ;
1152 [label="X[2] <= 171184.5\ngini = 0.4089\nsamples = 485\nvalue = [346, 139]"] ;
846 -> 1152 ;
1153 [label="X[2] <= 27018.5\ngini = 0.3349\nsamples = 221\nvalue = [174, 47]"] ;
1152 -> 1153 ;
1154 [label="X[0] <= 32.5\ngini = 0.375\nsamples = 4\nvalue = [1, 3]"] ;
1153 -> 1154 ;
1155 [label="gini = 0.0\nsamples = 1\nvalue = [1, 0]"] ;
1154 -> 1155 ;
1156 [label="gini = 0.0\nsamples = 3\nvalue = [0, 3]"] ;
1154 -> 1156 ;
1157 [label="X[2] <= 74376.0\ngini = 0.3233\nsamples = 217\nvalue = [173, 44]"] ;
1153 -> 1157 ;
1158 [label="X[2] <= 39507.5\ngini = 0.1896\nsamples = 66\nvalue = [59, 7]"] ;
1157 -> 1158 ;
1159 [label="X[2] <= 33547.5\ngini = 0.32\nsamples = 30\nvalue = [24, 6]"] ;
1158 -> 1159 ;
1160 [label="gini = 0.0\nsamples = 8\nvalue = [8, 0]"] ;
1159 -> 1160 ;
1161 [label="X[2] <= 33826.5\ngini = 0.3967\nsamples = 22\nvalue = [16, 6]"] ;
1159 -> 1161 ;
1162 [label="gini = 0.0\nsamples = 1\nvalue = [0, 1]"] ;
1161 -> 1162 ;
1163 [label="X[6] <= 11.5\ngini = 0.3628\nsamples = 21\nvalue = [16, 5]"] ;
1161 -> 1163 ;
1164 [label="X[6] <= 9.0\ngini = 0.4444\nsamples = 15\nvalue = [10, 5]"] ;
1163 -> 1164 ;
1165 [label="X[6] <= 3.5\ngini = 0.375\nsamples = 12\nvalue = [9, 3]"] ;
1164 -> 1165 ;
1166 [label="X[0] <= 34.5\ngini = 0.4898\nsamples = 7\nvalue = [4, 3]"] ;
1165 -> 1166 ;
1167 [label="X[12] <= 47.5\ngini = 0.48\nsamples = 5\nvalue = [2, 3]"] ;
1166 -> 1167 ;
1168 [label="X[2] <= 34291.5\ngini = 0.375\nsamples = 4\nvalue = [1, 3]"] ;
1167 -> 1168 ;
1169 [label="gini = 0.0\nsamples = 1\nvalue = [1, 0]"] ;
1168 -> 1169 ;
1170 [label="gini = 0.0\nsamples = 3\nvalue = [0, 3]"] ;
1168 -> 1170 ;
1171 [label="gini = 0.0\nsamples = 1\nvalue = [1, 0]"] ;
1167 -> 1171 ;
1172 [label="gini = 0.0\nsamples = 2\nvalue = [2, 0]"] ;
1166 -> 1172 ;
1173 [label="gini = 0.0\nsamples = 5\nvalue = [5, 0]"] ;
1165 -> 1173 ;
1174 [label="X[12] <= 45.0\ngini = 0.4444\nsamples = 3\nvalue = [1, 2]"] ;
1164 -> 1174 ;
1175 [label="gini = 0.0\nsamples = 2\nvalue = [0, 2]"] ;
1174 -> 1175 ;
1176 [label="gini = 0.0\nsamples = 1\nvalue = [1, 0]"] ;
1174 -> 1176 ;
1177 [label="gini = 0.0\nsamples = 6\nvalue = [6, 0]"] ;
1163 -> 1177 ;
1178 [label="X[6] <= 12.5\ngini = 0.054\nsamples = 36\nvalue = [35, 1]"] ;
1158 -> 1178 ;
1179 [label="gini = 0.0\nsamples = 31\nvalue = [31, 0]"] ;
1178 -> 1179 ;
1180 [label="X[2] <= 57336.0\ngini = 0.32\nsamples = 5\nvalue = [4, 1]"] ;
1178 -> 1180 ;
1181 [label="X[2] <= 52287.0\ngini = 0.5\nsamples = 2\nvalue = [1, 1]"] ;
1180 -> 1181 ;
1182 [label="gini = 0.0\nsamples = 1\nvalue = [1, 0]"] ;
1181 -> 1182 ;
1183 [label="gini = 0.0\nsamples = 1\nvalue = [0, 1]"] ;
1181 -> 1183 ;
1184 [label="gini = 0.0\nsamples = 3\nvalue = [3, 0]"] ;
1180 -> 1184 ;
1185 [label="X[2] <= 127758.0\ngini = 0.37\nsamples = 151\nvalue = [114, 37]"] ;
1157 -> 1185 ;
1186 [label="X[2] <= 113453.5\ngini = 0.4281\nsamples = 87\nvalue = [60, 27]"] ;
1185 -> 1186 ;
1187 [label="X[2] <= 106172.0\ngini = 0.3503\nsamples = 53\nvalue = [41, 12]"] ;
1186 -> 1187 ;
1188 [label="X[2] <= 103923.0\ngini = 0.4709\nsamples = 29\nvalue = [18, 11]"] ;
1187 -> 1188 ;
1189 [label="X[2] <= 92607.0\ngini = 0.4444\nsamples = 27\nvalue = [18, 9]"] ;
1188 -> 1189 ;
1190 [label="X[6] <= 13.5\ngini = 0.4938\nsamples = 18\nvalue = [10, 8]"] ;
1189 -> 1190 ;
1191 [label="X[0] <= 30.5\ngini = 0.4688\nsamples = 16\nvalue = [10, 6]"] ;
1190 -> 1191 ;
1192 [label="X[6] <= 8.5\ngini = 0.375\nsamples = 4\nvalue = [1, 3]"] ;
1191 -> 1192 ;
1193 [label="gini = 0.0\nsamples = 2\nvalue = [0, 2]"] ;
1192 -> 1193 ;
1194 [label="X[2] <= 82745.0\ngini = 0.5\nsamples = 2\nvalue = [1, 1]"] ;
1192 -> 1194 ;
1195 [label="gini = 0.0\nsamples = 1\nvalue = [1, 0]"] ;
1194 -> 1195 ;
1196 [label="gini = 0.0\nsamples = 1\nvalue = [0, 1]"] ;
1194 -> 1196 ;
1197 [label="X[12] <= 46.0\ngini = 0.375\nsamples = 12\nvalue = [9, 3]"] ;
1191 -> 1197 ;
1198 [label="X[12] <= 39.0\ngini = 0.1975\nsamples = 9\nvalue = [8, 1]"] ;
1197 -> 1198 ;
1199 [label="X[12] <= 36.5\ngini = 0.4444\nsamples = 3\nvalue = [2, 1]"] ;
1198 -> 1199 ;
1200 [label="gini = 0.0\nsamples = 2\nvalue = [2, 0]"] ;
1199 -> 1200 ;
1201 [label="gini = 0.0\nsamples = 1\nvalue = [0, 1]"] ;
1199 -> 1201 ;
1202 [label="gini = 0.0\nsamples = 6\nvalue = [6, 0]"] ;
1198 -> 1202 ;
1203 [label="X[2] <= 81188.5\ngini = 0.4444\nsamples = 3\nvalue = [1, 2]"] ;
1197 -> 1203 ;
1204 [label="gini = 0.0\nsamples = 1\nvalue = [1, 0]"] ;
1203 -> 1204 ;
1205 [label="gini = 0.0\nsamples = 2\nvalue = [0, 2]"] ;
1203 -> 1205 ;
1206 [label="gini = 0.0\nsamples = 2\nvalue = [0, 2]"] ;
1190 -> 1206 ;
1207 [label="X[0] <= 33.5\ngini = 0.1975\nsamples = 9\nvalue = [8, 1]"] ;
1189 -> 1207 ;
1208 [label="gini = 0.0\nsamples = 7\nvalue = [7, 0]"] ;
1207 -> 1208 ;
1209 [label="X[2] <= 99032.0\ngini = 0.5\nsamples = 2\nvalue = [1, 1]"] ;
1207 -> 1209 ;
1210 [label="gini = 0.0\nsamples = 1\nvalue = [1, 0]"] ;
1209 -> 1210 ;
1211 [label="gini = 0.0\nsamples = 1\nvalue = [0, 1]"] ;
1209 -> 1211 ;
1212 [label="gini = 0.0\nsamples = 2\nvalue = [0, 2]"] ;
1188 -> 1212 ;
1213 [label="X[0] <= 33.5\ngini = 0.0799\nsamples = 24\nvalue = [23, 1]"] ;
1187 -> 1213 ;
1214 [label="gini = 0.0\nsamples = 16\nvalue = [16, 0]"] ;
1213 -> 1214 ;
1215 [label="X[2] <= 110112.0\ngini = 0.2188\nsamples = 8\nvalue = [7, 1]"] ;
1213 -> 1215 ;
1216 [label="X[2] <= 108645.5\ngini = 0.375\nsamples = 4\nvalue = [3, 1]"] ;
1215 -> 1216 ;
1217 [label="gini = 0.0\nsamples = 3\nvalue = [3, 0]"] ;
1216 -> 1217 ;
1218 [label="gini = 0.0\nsamples = 1\nvalue = [0, 1]"] ;
1216 -> 1218 ;
1219 [label="gini = 0.0\nsamples = 4\nvalue = [4, 0]"] ;
1215 -> 1219 ;
1220 [label="X[6] <= 7.5\ngini = 0.4931\nsamples = 34\nvalue = [19, 15]"] ;
1186 -> 1220 ;
1221 [label="X[12] <= 47.5\ngini = 0.4339\nsamples = 22\nvalue = [15, 7]"] ;
1220 -> 1221 ;
1222 [label="X[2] <= 115405.5\ngini = 0.32\nsamples = 15\nvalue = [12, 3]"] ;
1221 -> 1222 ;
1223 [label="X[2] <= 114387.5\ngini = 0.5\nsamples = 4\nvalue = [2, 2]"] ;
1222 -> 1223 ;
1224 [label="gini = 0.0\nsamples = 2\nvalue = [2, 0]"] ;
1223 -> 1224 ;
1225 [label="gini = 0.0\nsamples = 2\nvalue = [0, 2]"] ;
1223 -> 1225 ;
1226 [label="X[1] <= 3.0\ngini = 0.1653\nsamples = 11\nvalue = [10, 1]"] ;
1222 -> 1226 ;
1227 [label="X[1] <= 1.0\ngini = 0.5\nsamples = 2\nvalue = [1, 1]"] ;
1226 -> 1227 ;
1228 [label="gini = 0.0\nsamples = 1\nvalue = [1, 0]"] ;
1227 -> 1228 ;
1229 [label="gini = 0.0\nsamples = 1\nvalue = [0, 1]"] ;
1227 -> 1229 ;
1230 [label="gini = 0.0\nsamples = 9\nvalue = [9, 0]"] ;
1226 -> 1230 ;
1231 [label="X[3] <= 11.5\ngini = 0.4898\nsamples = 7\nvalue = [3, 4]"] ;
1221 -> 1231 ;
1232 [label="gini = 0.0\nsamples = 2\nvalue = [2, 0]"] ;
1231 -> 1232 ;
1233 [label="X[12] <= 52.0\ngini = 0.32\nsamples = 5\nvalue = [1, 4]"] ;
1231 -> 1233 ;
1234 [label="gini = 0.0\nsamples = 4\nvalue = [0, 4]"] ;
1233 -> 1234 ;
1235 [label="gini = 0.0\nsamples = 1\nvalue = [1, 0]"] ;
1233 -> 1235 ;
1236 [label="X[10] <= 2032.0\ngini = 0.4444\nsamples = 12\nvalue = [4, 8]"] ;
1220 -> 1236 ;
1237 [label="X[0] <= 31.5\ngini = 0.32\nsamples = 10\nvalue = [2, 8]"] ;
1236 -> 1237 ;
1238 [label="X[4] <= 10.5\ngini = 0.48\nsamples = 5\nvalue = [2, 3]"] ;
1237 -> 1238 ;
1239 [label="X[6] <= 10.0\ngini = 0.4444\nsamples = 3\nvalue = [2, 1]"] ;
1238 -> 1239 ;
1240 [label="gini = 0.0\nsamples = 1\nvalue = [0, 1]"] ;
1239 -> 1240 ;
1241 [label="gini = 0.0\nsamples = 2\nvalue = [2, 0]"] ;
1239 -> 1241 ;
1242 [label="gini = 0.0\nsamples = 2\nvalue = [0, 2]"] ;
1238 -> 1242 ;
1243 [label="gini = 0.0\nsamples = 5\nvalue = [0, 5]"] ;
1237 -> 1243 ;
1244 [label="gini = 0.0\nsamples = 2\nvalue = [2, 0]"] ;
1236 -> 1244 ;
1245 [label="X[12] <= 27.5\ngini = 0.2637\nsamples = 64\nvalue = [54, 10]"] ;
1185 -> 1245 ;
1246 [label="gini = 0.0\nsamples = 1\nvalue = [0, 1]"] ;
1245 -> 1246 ;
1247 [label="X[2] <= 146862.0\ngini = 0.2449\nsamples = 63\nvalue = [54, 9]"] ;
1245 -> 1247 ;
1248 [label="gini = 0.0\nsamples = 16\nvalue = [16, 0]"] ;
1247 -> 1248 ;
1249 [label="X[2] <= 147745.5\ngini = 0.3096\nsamples = 47\nvalue = [38, 9]"] ;
1247 -> 1249 ;
1250 [label="gini = 0.0\nsamples = 1\nvalue = [0, 1]"] ;
1249 -> 1250 ;
1251 [label="X[2] <= 149922.0\ngini = 0.2873\nsamples = 46\nvalue = [38, 8]"] ;
1249 -> 1251 ;
1252 [label="gini = 0.0\nsamples = 6\nvalue = [6, 0]"] ;
1251 -> 1252 ;
1253 [label="X[2] <= 150105.5\ngini = 0.32\nsamples = 40\nvalue = [32, 8]"] ;
1251 -> 1253 ;
1254 [label="gini = 0.0\nsamples = 1\nvalue = [0, 1]"] ;
1253 -> 1254 ;
1255 [label="X[0] <= 32.5\ngini = 0.2945\nsamples = 39\nvalue = [32, 7]"] ;
1253 -> 1255 ;
1256 [label="X[6] <= 4.5\ngini = 0.4297\nsamples = 16\nvalue = [11, 5]"] ;
1255 -> 1256 ;
1257 [label="X[2] <= 159362.0\ngini = 0.2188\nsamples = 8\nvalue = [7, 1]"] ;
1256 -> 1257 ;
1258 [label="X[2] <= 157068.5\ngini = 0.375\nsamples = 4\nvalue = [3, 1]"] ;
1257 -> 1258 ;
